{"type":"LSTM","options":{"inputSize":11,"inputRange":11,"hiddenLayers":[20,20],"outputSize":11,"decayRate":0.999,"smoothEps":1e-8,"regc":0.000001,"clipval":5,"maxPredictionLength":100,"dataFormatter":{"indexTable":{"d":0,"r":1,"i":2,"v":3,"e":4,"h":5,"a":6,"w":7,"stop-input":8,"start-output":9,"unrecognized":10},"characterTable":{"0":"d","1":"r","2":"i","3":"v","4":"e","5":"h","6":"a","7":"w","8":null,"9":null,"10":null},"values":[{"input":"drive","output":"hardware"}],"characters":["d","r","i","v","e","h","a","w","stop-input","start-output","unrecognized"],"specialIndexes":[8,9,10]}},"trainOpts":{"iterations":20000,"errorThresh":0.005,"log":false,"logPeriod":10,"learningRate":0.01,"callbackPeriod":10,"timeout":"Infinity"},"input":{"rows":12,"columns":11,"weights":[0.2515106797218323,0.6285395622253418,-0.11730030924081802,0.24432168900966644,0.000762783398386091,-0.5563436150550842,0.028580522164702415,0.06541610509157181,-1.093338966369629,0.26503899693489075,-1.433109164237976,0.12492943555116653,0.6932770609855652,-0.23276637494564056,-0.26090797781944275,-0.5122458934783936,-0.43409213423728943,-0.30107682943344116,0.4157683253288269,-0.44862043857574463,0.607616126537323,0.5186036229133606,0.4135338366031647,0.5783833861351013,-0.47999584674835205,0.5022270679473877,-0.4762526750564575,-0.9319118857383728,-0.5365249514579773,0.676192581653595,-0.8650261759757996,0.5964345932006836,1.0083482265472412,0.3956981301307678,0.6281302571296692,-0.1815851926803589,0.25599244236946106,0.09450490772724152,-0.4182126522064209,0.1354452520608902,0.0605531670153141,-0.7308157682418823,0.31667330861091614,-0.039730142802000046,0.32958632707595825,0.36018216609954834,-0.4843125343322754,0.4160625636577606,-0.4806714653968811,-0.6125466227531433,-0.564708411693573,0.6468952894210815,-0.3988918662071228,0.3638477027416229,0.5536637902259827,1.500680685043335,1.0031646490097046,-1.3782954216003418,1.2179094552993774,-2.1712183952331543,-0.39141136407852173,0.12918086349964142,1.9191019535064697,-0.644049882888794,1.7286847829818726,1.7002415657043457,-0.36883309483528137,-1.1735968589782715,0.1534123420715332,-0.464311808347702,0.5207479596138,0.4860016107559204,0.6415262818336487,-0.8267167210578918,0.891867458820343,-0.505488395690918,-0.3432765007019043,-0.1683139204978943,-0.49735966324806213,0.12340256571769714,0.06786292791366577,0.735679030418396,0.38464242219924927,0.7262590527534485,-0.6627636551856995,0.4444616734981537,-0.2694959342479706,-0.8507333397865295,-0.32334479689598083,-0.6777167320251465,0.21092255413532257,-0.2568083107471466,0.4600307047367096,0.3986656665802002,0.5300456285476685,-0.5623874068260193,0.48430174589157104,-0.3958014249801636,-0.38591939210891724,1.6571519374847412,1.6133711338043213,-1.6195368766784668,1.6082286834716797,-1.3792935609817505,-0.8158355355262756,0.4653884172439575,1.3851115703582764,-1.0503647327423096,1.6670572757720947,2.0861029624938965,0.3600054383277893,0.06166931614279747,-0.3025057911872864,0.33941903710365295,-0.7582940459251404,-0.5766360759735107,-1.4375752210617065,0.7992406487464905,-0.2853108048439026,0.20483818650245667,1.3334711790084839,-0.06483309715986252,-0.02137438766658306,-0.07715581357479095,-0.058483246713876724,-0.06464918702840805,-0.009660444222390652,0.05834296718239784,-0.07619118690490723,0.06664252281188965,0.04429269954562187,0.07079292088747025]},"hiddenLayers":[{"inputMatrix":{"rows":20,"columns":11,"weights":[-0.9213449954986572,-1.0651434659957886,0.2520352900028229,-0.31161031126976013,0.24741557240486145,-0.6485822796821594,-1.6389445066452026,0.059937164187431335,0.2792567312717438,-0.8346461057662964,0.45136961340904236,0.6291701793670654,-0.37114453315734863,-0.436965674161911,0.5257535576820374,-0.23638485372066498,0.15447580814361572,0.040171388536691666,0.16426976025104523,0.6220538020133972,0.6900128126144409,0.5306171178817749,-0.6452345252037048,-0.19539189338684082,0.05550780147314072,-0.6167787313461304,-0.09639516472816467,0.03395645692944527,-0.13339143991470337,0.06646601855754852,-0.019874615594744682,-0.38070133328437805,-0.06248544901609421,0.08926155418157578,-0.04806718975305557,0.21553091704845428,0.27063870429992676,-0.2135399580001831,-0.29642254114151,-0.32117822766304016,0.23756125569343567,0.011824886314570904,0.00043180558714084327,0.6110478639602661,0.01421941164880991,-0.11864952743053436,-0.1517399400472641,0.11125271767377853,0.45316454768180847,0.3046092391014099,0.5100760459899902,-0.4307788014411926,0.34783294796943665,-0.12441389262676239,-0.25995323061943054,0.2930280566215515,0.5564266443252563,0.010996382683515549,0.47874537110328674,-0.0908980593085289,-0.49979621171951294,-0.43463334441185,0.25594305992126465,-0.5037545561790466,0.31154462695121765,0.15516558289527893,0.47256311774253845,-0.6837555170059204,-0.28476405143737793,0.40444329380989075,-0.22544682025909424,0.3457928001880646,0.083213672041893,0.18375419080257416,0.4493129253387451,0.04863940551877022,0.3756851255893707,0.3686578571796417,-0.7892776131629944,-0.16114690899848938,0.29365888237953186,-0.025754624977707863,0.4313707649707794,0.1996222585439682,0.06238214671611786,0.5850972533226013,0.20977064967155457,0.4633718430995941,-0.5725027322769165,-1.4207087755203247,0.007538867183029652,-0.1840105652809143,0.4732244312763214,0.5708394050598145,0.13502833247184753,-0.39717283844947815,0.7251774072647095,-0.6958065032958984,-0.23577673733234406,0.13387297093868256,0.15520179271697998,-0.12961317598819733,0.2822814881801605,-0.24111385643482208,-0.2682429254055023,-0.28884097933769226,0.3238469660282135,0.012292842380702496,0.27380719780921936,0.6471620798110962,0.17665375769138336,0.25092649459838867,0.19018806517124176,0.16160814464092255,0.5343613624572754,0.11159446835517883,0.33019953966140747,-0.49300122261047363,-0.5025351643562317,-0.33076027035713196,-2.420459508895874,0.2531922161579132,0.12287899851799011,-0.06700319051742554,-0.1936957985162735,-0.7875001430511475,-0.00221154629252851,-0.17680612206459045,-0.12651631236076355,0.666600227355957,0.47161269187927246,0.8442219495773315,0.6159235835075378,-0.7748911380767822,-0.17002590000629425,0.42741042375564575,-0.07003621757030487,0.3760630488395691,0.30173471570014954,-0.0022384109906852245,0.653563380241394,0.3736300766468048,0.2193066030740738,-0.029383888468146324,0.014963517896831036,0.005347056780010462,-0.33553895354270935,-0.6324998736381531,-0.3150354325771332,-0.18181093037128448,0.1880057156085968,0.11370067298412323,0.4137047529220581,1.3672616481781006,-0.005715339910238981,0.06592992693185806,-0.3489663004875183,-0.5068594813346863,-0.173647940158844,-0.08077897131443024,0.07605428248643875,0.13908898830413818,0.18430840969085693,0.5705222487449646,-0.031336717307567596,-0.3388003408908844,0.8517346978187561,0.15933308005332947,-0.17042653262615204,0.08217345923185349,-0.7017590403556824,-0.21007844805717468,0.053268007934093475,-0.8200623989105225,0.2764589488506317,-0.5978925824165344,0.1645621508359909,0.06357520073652267,-0.4475913941860199,0.10432872921228409,-0.196726456284523,-0.17444120347499847,-0.3254487216472626,0.191757932305336,0.06784661114215851,0.19878804683685303,0.7689629197120667,0.49926817417144775,0.19748038053512573,-0.09461310505867004,-0.07226605713367462,-0.43773528933525085,0.17806336283683777,-0.22108307480812073,0.2970483601093292,0.9448563456535339,0.5376033186912537,0.8128138780593872,-0.025503700599074364,-0.12375593185424805,-0.6382638812065125,0.12796048820018768,-0.14216026663780212,0.13234294950962067,-0.12930342555046082,0.06506837159395218,0.19186612963676453,-0.014138391241431236,0.7681344151496887,0.6272994875907898,-0.4833020865917206,-0.41877874732017517,0.8134661912918091,0.11704584956169128,0.6914954781532288,0.6789793968200684,-0.1487409621477127,0.8367134928703308,0.11396650224924088,0.3782779276371002]},"inputHidden":{"rows":20,"columns":20,"weights":[-0.8934703469276428,-0.21567130088806152,-0.8709876537322998,0.13509763777256012,1.6201832294464111,-0.8295743465423584,0.5832761526107788,-0.15031246840953827,-1.2403786182403564,-0.17758376896381378,-1.3925178050994873,-0.14875175058841705,-0.056884340941905975,0.4979264438152313,-0.5824277997016907,-0.2845335304737091,-0.29365721344947815,0.3277232050895691,0.29125916957855225,0.008182778023183346,1.475576639175415,0.440640926361084,0.3055361807346344,-0.8395559787750244,-1.504233479499817,1.5784025192260742,-0.13011381030082703,-0.14932353794574738,0.3699462115764618,0.6767309308052063,-0.0024518941063433886,-0.33616745471954346,-0.15084514021873474,0.2837056517601013,-0.7719246745109558,1.0467535257339478,0.7488321661949158,0.23488563299179077,-0.6747448444366455,-0.17290207743644714,-0.06244606152176857,0.41596877574920654,-0.007850189693272114,0.09414487332105637,-0.529780924320221,0.7016618251800537,-0.2583220601081848,0.5177946090698242,0.10439986735582352,-0.1514022797346115,-0.636123776435852,-0.32407549023628235,0.5930277109146118,-0.6037940979003906,0.7496759295463562,0.8837973475456238,-0.257081538438797,-0.5918681025505066,0.35213470458984375,0.6993756294250488,-0.2855702042579651,-0.35692280530929565,-0.5135471820831299,0.22147509455680847,0.9747174978256226,-1.6252788305282593,0.14608582854270935,-0.5593048930168152,-0.13052630424499512,-0.21684373915195465,0.09195497632026672,0.2284022867679596,-0.3655282258987427,0.5394039750099182,-0.6184046268463135,-1.226485252380371,-0.2929854989051819,0.6829667687416077,0.21090100705623627,-0.4993416368961334,-0.297929048538208,0.024438908323645592,-0.6032705307006836,0.9593027830123901,1.541971206665039,-0.9781535267829895,0.7005324959754944,0.6022284030914307,-0.8623302578926086,-1.0170646905899048,-0.7198847532272339,0.285622239112854,0.5113328099250793,-0.5252719521522522,0.2651411294937134,-1.3248720169067383,-1.0664948225021362,-0.6628209948539734,0.8774625658988953,0.7005321979522705,-1.171216607093811,-0.003967743832617998,-0.44729024171829224,0.6786596775054932,1.1041535139083862,-1.0750839710235596,-0.10748165845870972,-0.02555638924241066,-2.195920705795288,-0.6209884285926819,-0.4033878743648529,0.09607713669538498,0.05235101282596588,-0.015766695141792297,1.4180152416229248,-0.7148878574371338,-1.2157968282699585,0.0030697453767061234,0.2457449734210968,-0.13196423649787903,0.5549342632293701,0.1729462891817093,0.8102568984031677,-0.9268887042999268,-0.9901052713394165,0.4370987117290497,-0.40243440866470337,-0.419744610786438,0.4593908190727234,0.5275127291679382,1.0987263917922974,-0.498305082321167,-0.09107805043458939,0.3460467457771301,-0.44798746705055237,0.27905213832855225,0.795994222164154,0.4401356279850006,-0.8482862710952759,-0.4006432294845581,0.957992434501648,-0.04984197020530701,0.401353120803833,-0.9176334142684937,-0.6545106172561646,0.3403427004814148,0.07248696684837341,-0.22446294128894806,0.5251832604408264,0.7888727784156799,0.8894320130348206,0.14905022084712982,-0.08821211755275726,0.39797985553741455,-0.5155913233757019,0.44998714327812195,0.8990496397018433,0.3136846721172333,-0.894073486328125,-0.43347376585006714,-0.12677106261253357,1.4340354204177856,0.4299390912055969,-0.6781072616577148,0.07504785060882568,0.09102873504161835,-1.4333953857421875,-0.23717015981674194,-1.0501086711883545,0.4299316704273224,-0.21315503120422363,-2.057236433029175,-0.3060535788536072,0.026959054172039032,-0.35935890674591064,0.059289149940013885,0.5582509636878967,0.04924260824918747,-0.7274850606918335,-0.5245093107223511,-0.04286739230155945,-0.33810436725616455,-0.6814720630645752,-0.18424367904663086,0.8361561894416809,-0.7301113605499268,0.2126641869544983,-0.47513777017593384,-0.03762759268283844,-0.08183823525905609,-0.8404757976531982,0.24173134565353394,-0.5143482685089111,0.6640828251838684,-0.39320218563079834,-0.04977831989526749,0.2376074343919754,0.6233702301979065,-0.36085447669029236,-0.5903504490852356,-0.22892343997955322,0.49566033482551575,0.239238902926445,-0.28332334756851196,-0.8307678699493408,-3.2163853645324707,-0.9256048798561096,-0.0037569906562566757,-1.026033639907837,0.44020548462867737,-0.9803541898727417,-0.23393863439559937,0.104954794049263,-0.12063208967447281,-0.24051202833652496,-0.4721352458000183,0.9400047063827515,-0.09427954256534576,-0.10660207271575928,-0.06704337894916534,0.279098242521286,0.33481115102767944,0.6720057129859924,-1.4294753074645996,-0.4454220235347748,1.2285094261169434,-0.49955320358276367,-0.19827039539813995,0.4331371486186981,1.166514277458191,-0.41850048303604126,-0.07937446981668472,-0.017862942069768906,0.6434733271598816,-0.7659633159637451,1.5623753070831299,1.1778695583343506,0.5783830881118774,-1.061030626296997,-0.15431387722492218,0.43849819898605347,0.40655431151390076,0.5781617164611816,-0.649846076965332,-0.7677197456359863,0.3966808617115021,-0.2913757860660553,-0.23422124981880188,0.387932151556015,0.46636027097702026,1.2573442459106445,-0.46174049377441406,-0.26593655347824097,0.14264847338199615,-0.10258869081735611,0.3423537313938141,0.5673133134841919,0.11354842036962509,-0.6381321549415588,-0.5555203557014465,0.5791698694229126,-0.11585412174463272,0.23390112817287445,-1.6491605043411255,-0.1731201410293579,0.7840396165847778,0.21246843039989471,-0.5114408731460571,0.17603912949562073,1.5122716426849365,-0.1625078022480011,0.28362441062927246,-0.28247857093811035,0.9919023513793945,-0.7307056188583374,1.115300178527832,1.4277961254119873,0.849472165107727,-1.27798330783844,-0.4166472554206848,-0.019703293219208717,0.5672537684440613,0.2468394637107849,-1.2277370691299438,-0.4255150854587555,0.9492997527122498,-0.47714483737945557,-0.0663972720503807,0.5102422833442688,0.9007750153541565,-0.37227746844291687,-0.26021721959114075,-0.14411060512065887,-0.1150818020105362,0.26088353991508484,1.2649234533309937,0.9017763137817383,-0.12709109485149384,-0.7805330157279968,-0.10640353709459305,-0.31339532136917114,-0.7621641159057617,-0.583285391330719,0.8115667104721069,1.1162300109863281,-0.1510717123746872,-0.3898157477378845,0.7287577390670776,-1.301798701286316,-0.015251578763127327,-0.9625183939933777,0.5141632556915283,1.173090934753418,-0.21335549652576447,0.3400285243988037,0.5936258435249329,-0.6790052652359009,-0.2551605701446533,0.4668786823749542,0.7299284338951111,-0.1314372718334198,-0.29360276460647583,0.09720025956630707,-0.04164404422044754,0.8961211442947388,-0.7368342876434326,-0.006664578337222338,-0.631722629070282,-0.24267643690109253,0.36163273453712463,-0.7633998394012451,0.13525766134262085,-0.713560938835144,0.5665478706359863,-0.27304497361183167,-0.3999890089035034,0.4368685781955719,0.7764109969139099,-0.881786584854126,-0.6164341568946838,0.7137869000434875,-0.019990285858511925,0.44474005699157715,-1.4308980703353882,-0.1021868884563446,0.787010669708252,0.05094921216368675,-0.39231008291244507,0.5745795965194702,1.2480415105819702,0.14750982820987701,0.2993568181991577,-0.1258440613746643,0.7842772006988525,-0.7004064917564392,1.2142761945724487,1.4244054555892944,0.4211074411869049,-1.295955777168274,-0.2549077570438385,-0.0344463549554348,-0.2548241913318634,0.13855622708797455,-0.4631393551826477,0.932094156742096,-0.46360528469085693,-0.1562078595161438,-0.23786503076553345,-0.521518349647522,0.8013358116149902,-0.5119943618774414,0.09952571988105774,-0.16797807812690735,0.8276746869087219,-0.6198447346687317,-0.25731346011161804,0.5893778204917908,0.6565256118774414,-0.7856287360191345,-0.48907670378685,0.8856577277183533,-0.08049099147319794,0.5135336518287659,-0.6295783519744873,-0.8185204267501831,0.28283244371414185,0.192446768283844,-0.2301887422800064,-0.049013908952474594,0.6596583127975464,1.3215018510818481,0.2507573068141937,0.025866776704788208,0.7626259922981262,-0.39541497826576233,0.11937021464109421,0.6584705114364624,0.5458674430847168,-0.9822933077812195,-0.36985695362091064]},"inputBias":{"rows":20,"columns":1,"weights":[0.34422245621681213,-0.8277089595794678,-0.38551434874534607,0.21058890223503113,-0.2597745358943939,0.7204946875572205,-0.8183245658874512,-0.8753523230552673,-0.46252939105033875,0.15814658999443054,1.0911047458648682,-1.4523082971572876,-0.8741139769554138,-1.3605388402938843,-0.5568571090698242,0.8893961906433105,0.12459949404001236,-1.1945303678512573,0.09774443507194519,-0.9188204407691956]},"forgetMatrix":{"rows":20,"columns":11,"weights":[0.4097524583339691,-0.2587556838989258,-0.5091622471809387,1.147067904472351,0.255765438079834,0.21902532875537872,0.18433226644992828,-0.3256163001060486,0.16846945881843567,-0.2817041575908661,-0.1288234442472458,-0.11657640337944031,0.9304044246673584,0.2480902224779129,0.08168235421180725,-1.1338329315185547,-1.1432759761810303,-1.2830804586410522,1.2288572788238525,-0.8240074515342712,0.967970609664917,1.2225724458694458,-0.3837538957595825,-0.3692705035209656,0.4340299665927887,-0.4936763346195221,0.3683984875679016,0.5001229643821716,0.25977641344070435,-0.3218492865562439,0.4616216719150543,-0.4339974522590637,-0.486873060464859,0.6592290997505188,1.0941053628921509,-0.504194974899292,0.5117956399917603,-1.1709439754486084,-1.2123771905899048,-1.2796107530593872,1.3426599502563477,-1.5291306972503662,0.8111151456832886,1.2099586725234985,-0.0902336984872818,-0.24617987871170044,0.106924869120121,-0.0056991796009242535,0.41572803258895874,0.4485394358634949,0.3646363615989685,-0.4071657955646515,0.4748970568180084,-0.2069511115550995,-0.4114221930503845,0.5748707056045532,0.12721414864063263,-0.5913767218589783,0.8269513845443726,0.2369169294834137,-0.13001640141010284,0.09056872874498367,-0.010818170383572578,0.056140732020139694,0.2666671574115753,0.14931805431842804,-0.5397660732269287,0.5061917304992676,0.952294647693634,-0.6659469604492188,-1.2428568601608276,-1.1328656673431396,-1.3270840644836426,1.4439069032669067,-1.067135214805603,-0.2129298746585846,1.066445231437683,0.10407759249210358,1.268283486366272,0.3917795419692993,-0.2555665671825409,-1.2344017028808594,-1.0923296213150024,-1.4633444547653198,1.4265156984329224,-1.4077757596969604,0.6705613732337952,1.2484229803085327,-0.8787708282470703,-0.9088808298110962,0.6760812997817993,-0.7096034288406372,0.40535804629325867,0.4159626066684723,0.19730642437934875,-0.24585627019405365,0.3712175190448761,-0.7892736196517944,-0.49881279468536377,0.055914755910634995,0.6214199066162109,0.21373172104358673,-0.10683690756559372,-0.261952668428421,-0.3016846179962158,-0.7254568338394165,0.44805121421813965,-0.4878999590873718,0.18777433037757874,0.1642470508813858,-1.1147819757461548,-0.04313163459300995,0.8545061945915222,-2.073728561401367,0.04672037810087204,0.02394089475274086,-0.7492485642433167,-0.18917055428028107,-0.026345809921622276,0.09622102975845337,-0.5312743186950684,-0.20238175988197327,0.4615894556045532,0.5684698820114136,-0.32906463742256165,-0.9240561723709106,-0.3745274543762207,-0.7500537633895874,1.0780348777770996,-0.3540627062320709,0.0528738908469677,0.5927674770355225,0.24987177550792694,1.3235961198806763,0.3391949534416199,-0.22863493859767914,-1.1032747030258179,-1.1006836891174316,-1.3449461460113525,1.2688037157058716,-1.536391019821167,0.7881861329078674,1.3603427410125732,0.4817498028278351,1.1777114868164062,0.03447442129254341,0.38025346398353577,-1.0593770742416382,-0.9891620874404907,-1.2447504997253418,1.1607739925384521,-1.112295389175415,0.7020972967147827,1.0375319719314575,-0.635551929473877,-0.6009920239448547,0.7246531248092651,-0.6440802812576294,-0.09384242445230484,0.3995630741119385,0.3294175863265991,-0.1239950954914093,0.09964654594659805,-0.4952073395252228,-0.10518859326839447,0.4657750725746155,0.5379877686500549,-0.601980984210968,0.5365765690803528,0.352946013212204,0.04628917574882507,0.7555333375930786,-0.3297070264816284,0.19542895257472992,0.4342799782752991,-0.33266812562942505,0.7813965678215027,0.9976028203964233,-0.4703997075557709,0.6300004124641418,-0.8061106204986572,-0.9709696769714355,-1.0770010948181152,1.039358377456665,-1.2167507410049438,0.7434719800949097,0.8312200903892517,0.47185608744621277,1.274360179901123,0.09755166620016098,0.26726728677749634,-1.1420159339904785,-0.8996118903160095,-1.283976674079895,1.3061684370040894,-1.2370496988296509,0.675153374671936,1.146912932395935,0.795663058757782,1.130698323249817,-0.5085578560829163,0.47026631236076355,-0.9866640567779541,-1.0799516439437866,-1.0380723476409912,1.089978814125061,-1.027661919593811,0.8359926342964172,0.9728186130523682,0.4715654253959656,1.3828109502792358,0.22864319384098053,0.15650244057178497,-1.1698460578918457,-1.1107470989227295,-1.3527798652648926,1.3536179065704346,-1.4036701917648315,0.8091689944267273,1.197002649307251]},"forgetHidden":{"rows":20,"columns":20,"weights":[0.3073059320449829,0.6560264229774475,-0.3622092008590698,0.48113980889320374,-0.5514397025108337,-0.6248034834861755,-0.06349681317806244,0.6412144303321838,-1.1374881267547607,-0.4535840153694153,0.6789953112602234,-0.07446113973855972,0.6395109295845032,-0.813720703125,0.6938692927360535,-1.0328863859176636,-0.8149541020393372,-0.805175244808197,0.8698868155479431,0.7591271996498108,-0.09300439804792404,-0.29066202044487,-0.18821530044078827,-0.030600881204009056,0.211107075214386,0.02997863106429577,0.3007262349128723,-0.36601632833480835,0.28916457295417786,-0.4100172817707062,-1.0984807014465332,0.5135640501976013,-0.4250892996788025,0.30143502354621887,-0.4262186288833618,0.22542373836040497,0.011645575985312462,0.22026494145393372,-0.16974873840808868,-0.4868425130844116,-0.052337050437927246,-0.07692189514636993,-0.2254013568162918,0.34450364112854004,-0.2861723303794861,-0.08046215027570724,0.212213397026062,-0.14580655097961426,0.42880985140800476,-0.32633426785469055,-0.14986564218997955,-0.17549097537994385,-0.06915511190891266,-0.09865947812795639,-0.22973129153251648,0.10431493073701859,-0.30803972482681274,-0.09523318707942963,0.21495865285396576,-0.025895297527313232,0.23201043903827667,0.08981674909591675,0.4110996723175049,-0.4421709179878235,-0.229204460978508,0.1553543508052826,0.006304366514086723,0.13688236474990845,-0.5338659882545471,0.3090425431728363,0.18639282882213593,-0.06357736140489578,-0.017434895038604736,-0.12114132940769196,-0.030539661645889282,0.23568956553936005,0.20962752401828766,-0.013455917127430439,-0.237704798579216,0.26240214705467224,-0.13533896207809448,0.3004119098186493,-0.626988410949707,0.2605874836444855,-0.05628387629985809,-1.8891077041625977,-0.2059391885995865,0.6214104294776917,-1.5414314270019531,-0.6321988701820374,-0.2908567488193512,-0.46760237216949463,0.4589084982872009,-0.6660059094429016,0.9586693644523621,-0.5701496601104736,-0.712872326374054,-0.6254461407661438,0.5871541500091553,0.530703067779541,0.4969295859336853,0.4613390266895294,-0.25663912296295166,0.565100908279419,0.1642068475484848,-0.5860650539398193,-0.46623528003692627,0.5105456113815308,-1.2686227560043335,-0.3448282480239868,0.16249549388885498,-0.5603336095809937,0.32307761907577515,-0.4795505702495575,0.5162870287895203,-0.8531441688537598,-0.632219672203064,-0.37764278054237366,0.734300971031189,0.46096327900886536,-0.540507972240448,-0.4438541829586029,-0.19789157807826996,0.0046740248799324036,0.1209169328212738,-0.1647123098373413,0.0063840607181191444,-0.3545791208744049,0.04939219728112221,-0.02437565289437771,-0.3847637176513672,0.035559460520744324,-0.4170480966567993,0.5322554707527161,-0.4505506753921509,-0.23370739817619324,0.2690559923648834,0.3763098120689392,-0.2798987925052643,-0.46037939190864563,-0.06200813874602318,-0.2673308253288269,-0.3213951587677002,-0.03216838836669922,-0.0856279507279396,0.12850411236286163,0.3246517777442932,-0.29153352975845337,0.40179726481437683,-0.4718303680419922,-0.6129156947135925,0.32114481925964355,-0.2821069061756134,0.12332668900489807,-0.48590394854545593,0.07273902744054794,-0.036321673542261124,0.15079812705516815,-0.2233830988407135,-0.36488160490989685,-0.30658861994743347,0.2558414041996002,-0.2231651246547699,0.31585508584976196,0.11695056408643723,-0.21401861310005188,-0.41069296002388,0.19210973381996155,0.17801010608673096,-0.34480801224708557,-0.3719227612018585,-0.20660808682441711,0.30829641222953796,-0.22971214354038239,-0.22956210374832153,-0.09304985404014587,-0.4094790816307068,-0.2016657143831253,0.6262784600257874,0.2940833568572998,-0.08497722446918488,0.21553246676921844,0.4743303954601288,0.08244918286800385,0.3720809519290924,0.32886242866516113,0.17805679142475128,0.9348570704460144,-0.05787087604403496,-0.10208111256361008,0.10502514988183975,0.29899370670318604,0.9663676023483276,-0.6888967156410217,0.6317548155784607,0.9457715153694153,-0.07642441242933273,-0.8003332018852234,0.17298689484596252,0.8457546234130859,-0.21998462080955505,0.7910982370376587,-0.5238879323005676,-0.8745366334915161,0.08533374965190887,0.11534466594457626,-3.4836950302124023,-0.736378014087677,0.13622725009918213,1.1003265380859375,-1.3467892408370972,-0.4289686381816864,-0.4803624749183655,0.4018310606479645,-0.09210475534200668,1.4823297262191772,0.7489765286445618,0.29488691687583923,-0.22205305099487305,-0.2501955032348633,-0.19917935132980347,0.37827375531196594,-0.4665621519088745,1.3660625219345093,0.06338880211114883,0.18758973479270935,-0.5777300596237183,0.8298569321632385,0.8138642907142639,-0.8808576464653015,-1.8481348752975464,-0.2367432415485382,0.5429674983024597,-0.5981835722923279,-0.08954580128192902,0.6566153168678284,-0.5112233757972717,-0.6177141070365906,0.7186335325241089,0.6810005903244019,0.05950302258133888,-0.22671355307102203,-0.3033496141433716,0.049635205417871475,0.09607293456792831,0.08698061853647232,0.5054358839988708,-0.2419411540031433,0.3093697428703308,-0.5362304449081421,-0.5370987057685852,0.4192860424518585,-0.36036765575408936,0.19161809980869293,-0.5466150641441345,0.07080525159835815,-0.060205526649951935,0.22726447880268097,-0.12592408061027527,-0.3569773733615875,-0.44577765464782715,-0.3414231836795807,-0.04511980339884758,0.23714618384838104,-0.04593570902943611,0.29691630601882935,0.14992769062519073,-0.39999574422836304,0.34328481554985046,-0.11157508194446564,-0.23270076513290405,0.22852902114391327,-0.4383179545402527,0.07488428801298141,-0.04128335788846016,0.08146744221448898,0.24182230234146118,0.12741515040397644,0.03488074243068695,-0.23747597634792328,0.16924647986888885,-0.8675881624221802,-0.33630385994911194,0.7434360980987549,0.21191589534282684,0.48226630687713623,1.9335724115371704,0.6808270812034607,0.2050510048866272,-0.45790183544158936,-0.5765138268470764,1.7554774284362793,0.6327072978019714,-0.036594510078430176,0.10870718210935593,0.667435348033905,-0.3615705668926239,-0.5027579069137573,0.22168365120887756,0.8364415168762207,0.2838747203350067,-2.174572229385376,-0.044536542147397995,-0.6335645914077759,0.19877409934997559,-0.9889665842056274,0.05110982805490494,1.4866927862167358,-1.3091685771942139,1.070055603981018,-0.1375160962343216,0.730873167514801,1.9232572317123413,-0.45052507519721985,0.4730049967765808,-0.16584806144237518,0.7761149406433105,-0.5868738889694214,-0.7202927470207214,1.7756348848342896,-0.14389410614967346,0.49232980608940125,0.4365174472332001,-0.4104871451854706,-0.01668943092226982,0.5195816159248352,-0.12085524201393127,0.37200385332107544,-0.08078650385141373,0.42404282093048096,0.37692803144454956,-0.15089410543441772,0.40022164583206177,-0.2611880898475647,0.13981689512729645,0.5476542115211487,0.2944739758968353,-0.2885497808456421,-0.2648063600063324,0.22380973398685455,-0.2425912618637085,-0.16013266146183014,-0.14824452996253967,0.21437512338161469,-0.023835571482777596,0.29484298825263977,0.0638870894908905,-0.21511033177375793,0.4309261739253998,-0.2619847357273102,-0.2671355605125427,0.03594200685620308,-0.3153723180294037,0.1449519246816635,-0.4653555154800415,0.0030715223401784897,0.09532764554023743,0.2261793613433838,0.01871561072766781,-0.24274343252182007,-0.1483457386493683,0.19799238443374634,0.2989335060119629,-0.20996883511543274,0.1279819905757904,0.05743953213095665,-0.21094252169132233,0.09249522536993027,-0.3943307101726532,0.37862977385520935,0.06048521772027016,0.08087650686502457,-0.25622129440307617,-0.05659640207886696,0.5136541724205017,-0.01177704893052578,0.2540309429168701,-0.02311483956873417,-0.13513435423374176,0.10522359609603882,0.09613808244466782,-0.26668429374694824,-0.24176152050495148,0.035881806164979935,0.08320194482803345,0.008708723820745945,0.29824894666671753,-0.40214550495147705,0.1898757517337799,-0.2522526681423187,-0.39685726165771484,0.32604655623435974,-0.5335911512374878,0.17361101508140564,-0.4126088321208954,-0.04889875650405884,-0.0074590579606592655,0.25104501843452454,0.014587570913136005,-0.37557753920555115]},"forgetBias":{"rows":20,"columns":1,"weights":[0,0,0,0,0,0,0,0,0,0,0,0,0,0,0,0,0,0,0,0]},"outputMatrix":{"rows":20,"columns":11,"weights":[-0.3066347539424896,-0.8687940239906311,-0.0720234364271164,0.14385323226451874,-0.14417241513729095,-0.16321596503257751,-1.178267240524292,0.1663803905248642,0.10554072260856628,-0.4933716654777527,0.5009907484054565,0.3560902178287506,0.07058108597993851,-0.25109538435935974,0.1574719101190567,-0.23245200514793396,0.010643012821674347,0.004680664744228125,0.16242659091949463,0.4170478284358978,0.5615882873535156,0.49351269006729126,-0.641217052936554,-0.11972364783287048,0.42123764753341675,-0.6029234528541565,-0.03621123358607292,0.0009920125594362617,-0.07223821431398392,0.12443936616182327,-0.047890469431877136,-0.40948665142059326,-0.059667088091373444,0.1385202258825302,0.09464281052350998,0.27954232692718506,0.45341756939888,-0.08944249898195267,-0.2862604856491089,-0.3601195514202118,0.20446057617664337,-0.09376184642314911,-0.10565030574798584,0.5146032571792603,0.08681344985961914,-0.12243063747882843,-0.04142772778868675,0.17371627688407898,0.5384856462478638,0.43557608127593994,0.5162817239761353,-0.4244202673435211,0.55991530418396,-0.004933645017445087,-0.3599902391433716,-0.05940203368663788,0.5382792949676514,0.42567282915115356,0.2960798442363739,0.06615914404392242,-0.3643421232700348,-0.28348419070243835,-0.049449797719717026,-0.3195750415325165,0.07151781022548676,-0.17299862205982208,0.14345599710941315,-0.6755935549736023,-0.1999579519033432,0.18593502044677734,-0.1817166805267334,0.09382246434688568,-0.06177978217601776,0.1771964579820633,0.21862557530403137,-0.1629807949066162,0.4312458634376526,0.28923603892326355,-0.4532138407230377,-0.1831337958574295,0.20535139739513397,-0.17923977971076965,0.1746286004781723,0.017283396795392036,0.10464663058519363,0.35079285502433777,0.264979749917984,0.5478003025054932,-0.4939974844455719,-1.3836736679077148,0.027726126834750175,-0.20505163073539734,0.48949551582336426,0.6240430474281311,0.1648791879415512,-0.4661506116390228,0.7841591835021973,-0.651710033416748,-0.2517613470554352,0.29824233055114746,0.26595520973205566,-0.32553285360336304,0.289739727973938,-0.39214619994163513,-0.22264768183231354,-0.4682254493236542,0.28308871388435364,-0.018166325986385345,0.41955652832984924,0.6909705400466919,0.871168851852417,0.7544272541999817,-0.6982240080833435,0.25009849667549133,-0.09261266887187958,-0.6145387887954712,0.23297972977161407,0.06611955910921097,-0.8031070828437805,1.1526072025299072,-1.6664127111434937,0.13085556030273438,0.08582859486341476,0.13948263227939606,-0.34877583384513855,-0.5014736652374268,-0.05124451965093613,-0.4850436747074127,0.2592464089393616,0.05686028674244881,0.40174058079719543,0.6452423334121704,0.5549963712692261,-0.9134094715118408,-0.2937352657318115,0.6165459752082825,-0.15079598128795624,0.2761562764644623,0.2629702687263489,0.11604731529951096,0.5696195363998413,0.3171495497226715,0.4760080873966217,-0.11719877272844315,0.13055911660194397,0.04844563454389572,-0.265216588973999,-0.5961539149284363,-0.40306004881858826,-0.4508865177631378,0.3169374465942383,0.10686415433883667,0.3998183310031891,1.1048552989959717,-0.30095916986465454,0.1095103770494461,-0.18511277437210083,-0.4264989197254181,-0.32201826572418213,-0.13415049016475677,0.0689786821603775,0.1888488382101059,-0.07981652766466141,0.4868948757648468,0.06768517196178436,0.8789111375808716,1.0782548189163208,-0.273524671792984,0.7497226595878601,-0.07040000706911087,-0.8456007242202759,-0.2432222217321396,0.2172010987997055,-0.7920522093772888,0.6620424389839172,-0.3698091506958008,0.10132189840078354,0.05748150125145912,-0.5319209098815918,0.1948619782924652,-0.24663294851779938,-0.2857374846935272,-0.2966647148132324,0.20067556202411652,0.04537666216492653,0.2046813666820526,0.8070549368858337,0.07993540912866592,-0.09168858081102371,0.02402995526790619,-0.36825400590896606,-0.5415454506874084,-0.08449312299489975,-0.4452480673789978,0.11441663652658463,0.26572906970977783,0.2580502927303314,0.9315447807312012,0.11484060436487198,-0.010937769897282124,-0.6848800182342529,0.21845443546772003,-0.13117575645446777,-0.07771429419517517,-0.2036592811346054,0.11475483328104019,0.14868789911270142,0.17298343777656555,0.636559247970581,0.44000688195228577,-0.340847909450531,-0.2374483197927475,0.5679216384887695,-0.07056127488613129,0.6417496800422668,0.44255393743515015,0.10772237181663513,0.7504081130027771,0.0024831369519233704,0.5146896839141846]},"outputHidden":{"rows":20,"columns":20,"weights":[-1.192426323890686,-0.4194519817829132,-0.6181955337524414,0.005843861028552055,1.6401915550231934,-0.9475612640380859,0.5615968108177185,-0.2879853844642639,-1.0038808584213257,0.03170685097575188,-1.064355731010437,-0.055495817214250565,-0.2515183985233307,0.6330511569976807,-0.5501750111579895,-0.38838282227516174,0.014985579065978527,0.623562753200531,0.08296242356300354,-0.02770889177918434,1.4502289295196533,0.14600254595279694,0.3302462100982666,-1.0421242713928223,-1.7387728691101074,1.600962519645691,-0.4372836947441101,-0.16224464774131775,0.5444766283035278,0.8025124073028564,-0.21718569099903107,-0.05050842463970184,-0.2182690054178238,0.4576204717159271,-0.7712410688400269,1.275535225868225,0.8895237445831299,0.6479363441467285,-0.9947133660316467,-0.4054076075553894,-0.10621342808008194,0.23609641194343567,-0.3780653476715088,0.0922725722193718,-0.5069572925567627,0.5937240123748779,-0.18416400253772736,0.4785832464694977,0.15548460185527802,-0.6218662261962891,-0.8448660969734192,-0.330063134431839,0.544480562210083,-0.5968731641769409,0.6274375319480896,0.8837710618972778,-0.4274900555610657,-0.5015196800231934,0.43178504705429077,0.5421565771102905,-0.48937147855758667,-0.6389715075492859,-0.24207180738449097,0.26455652713775635,1.7235546112060547,-1.7361506223678589,0.1899547129869461,-0.7053616046905518,-0.39472275972366333,-0.12006679177284241,0.6244489550590515,0.5667435526847839,-0.6198961138725281,0.638809084892273,-0.7101132273674011,-1.2060537338256836,-0.07486540824174881,0.7538630366325378,0.08029289543628693,-0.632746160030365,0.1926957666873932,0.07362572848796844,-0.6144915223121643,0.9089915156364441,0.9253368377685547,-1.8881696462631226,0.7439042329788208,0.5958873629570007,-1.551031470298767,-1.049005150794983,-0.9935254454612732,0.18000607192516327,0.40745094418525696,-0.5319726467132568,0.21640054881572723,-1.3760671615600586,-1.0265742540359497,-0.5581337213516235,0.7779789566993713,0.6136538982391357,-1.3614872694015503,-0.05846899747848511,-1.2275797128677368,1.1949080228805542,1.6601650714874268,-1.2752106189727783,-0.16894076764583588,0.0975802019238472,-1.8048558235168457,-0.9931591749191284,-0.5645254254341125,0.0211531613022089,0.19013355672359467,-0.24029532074928284,1.1954549551010132,-1.2527214288711548,-0.9237769246101379,-0.07058582454919815,0.36944422125816345,0.04497428983449936,0.5670612454414368,-0.3146804869174957,0.758445680141449,-0.9595493674278259,-1.0783330202102661,0.5171065330505371,0.3431400954723358,-0.44703608751296997,0.2192203551530838,0.8586187362670898,1.1973271369934082,0.5030416250228882,-0.24167321622371674,0.5285106897354126,-0.673897385597229,0.11233379691839218,0.8366408348083496,0.511309802532196,-0.7306380867958069,-0.4090052843093872,0.822016179561615,-0.05177449434995651,0.4039927124977112,-0.890150785446167,-0.7600281238555908,0.27830836176872253,0.21818527579307556,-0.3522821366786957,0.5042447447776794,0.8109970688819885,1.0244539976119995,0.3788367807865143,-0.20589885115623474,0.7138760685920715,-0.6410853862762451,0.2851400673389435,0.7548847794532776,0.527125358581543,-0.9303247928619385,-0.4390113055706024,-0.1553438901901245,1.3872846364974976,0.5801588296890259,-0.8439776301383972,0.41405731439590454,0.20446524024009705,-1.6832300424575806,-0.1917838454246521,-0.9650236368179321,0.44956260919570923,-0.11628293991088867,-1.8326143026351929,-0.19450952112674713,0.16405156254768372,-0.35011807084083557,0.40200531482696533,0.6223780512809753,0.2110089361667633,-0.6880965828895569,-0.4776845872402191,-0.2245342880487442,-0.28311485052108765,-0.17249739170074463,-0.1855393946170807,0.8892341256141663,-0.5095856189727783,0.10122481733560562,-0.3260607123374939,-0.10676982253789902,0.29234835505485535,-0.9637318849563599,0.19370044767856598,-0.3812926113605499,0.5440256595611572,-0.258969247341156,0.10474998503923416,0.46146056056022644,0.49477675557136536,-0.6978620886802673,-0.5136306881904602,-0.5301697850227356,0.5327555537223816,-0.9506819248199463,-0.702383279800415,0.46524253487586975,-0.0016461812192574143,-1.0611214637756348,0.20156124234199524,-1.3717962503433228,0.49074786901474,-1.6301894187927246,-0.4851342737674713,0.2875950038433075,-0.05820833891630173,1.2209964990615845,1.4196984767913818,0.48208507895469666,0.035167355090379715,-0.3152041733264923,0.0436825305223465,0.7065149545669556,0.059779293835163116,0.5246338248252869,-1.3642343282699585,-0.4773141145706177,1.0998893976211548,-0.3352258801460266,-0.4489908516407013,0.5147700309753418,1.0338438749313354,-0.5838717222213745,-0.06715130805969238,-0.4951736629009247,0.5997886061668396,-0.737558126449585,1.5839436054229736,1.1789791584014893,0.6222228407859802,-0.9818891882896423,-0.5039881467819214,0.7134754657745361,0.12751002609729767,0.5112985968589783,-0.7281171083450317,-0.8087571859359741,0.020733634009957314,0.0631486251950264,-0.6339662075042725,0.4708360731601715,0.5875073671340942,1.426032543182373,-0.05499440059065819,-0.5451148152351379,0.4189508855342865,-0.4465518593788147,-0.10075830668210983,0.6228154301643372,0.5329673290252686,-0.7311547994613647,-0.7719195485115051,0.3483997881412506,-0.34055620431900024,0.22762300074100494,-1.5873825550079346,-0.22744321823120117,0.7062837481498718,-0.2176036387681961,-0.5731588006019592,0.36216557025909424,1.634520173072815,-0.26899710297584534,0.1920730322599411,-0.8401764631271362,0.9402206540107727,-0.8943944573402405,1.1790293455123901,1.4019502401351929,0.8335712552070618,-1.20501708984375,-0.5785907506942749,0.09751778095960617,0.06429988890886307,0.30222848057746887,-1.302783727645874,-0.30432718992233276,0.9009212851524353,0.1274547427892685,-0.15948626399040222,0.3957599103450775,1.2644973993301392,-0.4123131036758423,0.31824472546577454,-0.16559897363185883,0.26420024037361145,0.024011900648474693,1.1850287914276123,0.9937505125999451,0.18553178012371063,-0.7696253657341003,-0.27145010232925415,-0.7743180990219116,-0.4438117742538452,-0.5249868631362915,0.4336760342121124,1.3511117696762085,-0.7585448026657104,-0.8464077115058899,0.14293989539146423,-1.4941225051879883,-0.019989291206002235,-0.9114646315574646,0.5233069658279419,0.430997759103775,0.17644929885864258,0.5599573254585266,0.11543011665344238,-0.44946059584617615,0.3652814030647278,0.13725990056991577,0.09445517510175705,-0.2529541254043579,-0.19427670538425446,0.06656794250011444,-0.7129913568496704,0.8682964444160461,-0.23151960968971252,-0.1255926489830017,-0.5446553826332092,-0.4037952125072479,0.5754726529121399,-0.8869460225105286,0.1658521294593811,-0.61412113904953,0.609785258769989,-0.12365736812353134,-0.298305869102478,0.5575441122055054,0.6147885918617249,-0.9770236015319824,-0.6101176738739014,0.40456223487854004,-0.09321621060371399,0.34925708174705505,-1.3526402711868286,-0.1612989604473114,0.6240924000740051,-0.1241523027420044,-0.485145628452301,0.5511287450790405,0.9978774189949036,-0.13274520635604858,0.1016865000128746,-0.2879488170146942,0.7087176442146301,-0.5476304292678833,1.150247573852539,1.0685847997665405,0.7224715948104858,-1.2913718223571777,-0.7589338421821594,-0.24405042827129364,-0.2509373128414154,0.29200801253318787,-0.6824535727500916,1.0299752950668335,-0.13152724504470825,-0.37188342213630676,-0.6419099569320679,-0.49774622917175293,0.9038522243499756,-0.7226206064224243,0.10235804319381714,-0.8458523154258728,0.492171049118042,-0.5494851469993591,-0.24215315282344818,0.812639057636261,0.7021957635879517,-0.74383944272995,-0.5870725512504578,0.6871873736381531,-0.3185206353664398,0.53054279088974,-0.8524953126907349,-1.0650981664657593,0.3669213652610779,0.21894995868206024,-0.4926532506942749,-0.12835191190242767,0.7528474926948547,1.165578007698059,0.362614244222641,-0.3455725610256195,1.0101250410079956,-0.4653467833995819,0.17577603459358215,0.9001587629318237,0.8548098802566528,-1.2486120462417603,-0.3800526261329651]},"outputBias":{"rows":20,"columns":1,"weights":[0.3122568726539612,-0.8249737620353699,-0.38679444789886475,0.19270940124988556,-0.26229286193847656,0.7488699555397034,-0.8439281582832336,-0.8516144752502441,-0.47105953097343445,0.12870457768440247,0.8890865445137024,-1.3634355068206787,-0.8832697868347168,-1.2874647378921509,-0.5525909066200256,0.8995376229286194,0.0880160704255104,-1.0606915950775146,0.11537684500217438,-0.9668861627578735]},"cellActivationMatrix":{"rows":20,"columns":11,"weights":[-0.068379707634449,0.27136504650115967,0.15037696063518524,-0.11239726841449738,-0.49438172578811646,-0.6244950294494629,-0.5344129204750061,0.6362734436988831,-0.45458856225013733,-0.04284029081463814,0.6803609728813171,-0.8028602004051208,-0.4449014663696289,0.8069733381271362,-0.8974943161010742,0.1737356185913086,0.05182408168911934,-0.11145491153001785,-0.19452092051506042,0.16518695652484894,-0.954505205154419,-0.21403370797634125,-0.48970893025398254,-0.007189933210611343,0.6357722282409668,-0.5163588523864746,0.07669875025749207,0.098720982670784,0.12849988043308258,-0.005343482363969088,0.055198054760694504,-0.44238409399986267,-0.10443364083766937,-0.20156554877758026,-0.4886033535003662,0.14776936173439026,-0.20583954453468323,0.6663207411766052,0.6528286337852478,0.612040638923645,-0.7124245166778564,0.822700560092926,-0.4232337772846222,-0.78916335105896,0.13512815535068512,-0.2335716187953949,0.012000584974884987,0.1618671715259552,0.6148149967193604,0.5481462478637695,0.6984082460403442,-0.5543766021728516,0.38307416439056396,0.12117917835712433,-0.7180595993995667,0.17424775660037994,0.5295348763465881,-0.1637052446603775,0.22965644299983978,-0.6577470302581787,-0.7327864170074463,-0.6316121220588684,0.6629073023796082,-0.8335153460502625,0.30872905254364014,0.5185470581054688,0.6163386702537537,0.4652126133441925,-0.7446621060371399,0.7362031936645508,-0.320271372795105,0.01895812898874283,0.007396026514470577,0.25385546684265137,-0.14044708013534546,0.7984468340873718,0.2738555669784546,-0.9505158066749573,-0.7673208117485046,0.9495789408683777,-0.8954620361328125,0.21357081830501556,0.3672170639038086,0.054086364805698395,-0.24598130583763123,0.26717206835746765,-1.0196927785873413,-0.2155415564775467,0.706722617149353,0.36978423595428467,-0.6350070238113403,0.6767135858535767,-0.14969904720783234,-0.4597740173339844,-0.10184067487716675,0.2547604441642761,-0.3155359625816345,0.6702582836151123,0.29523468017578125,0.3600009083747864,0.5424531102180481,-0.1080242246389389,0.1748962551355362,-0.6951799988746643,-0.7099663615226746,-0.662628173828125,0.6678372621536255,-0.8767504096031189,0.589863657951355,0.7258502244949341,-0.6150438189506531,-0.13263653218746185,0.526432454586029,-0.5490000247955322,-0.35794597864151,-0.16801197826862335,-0.48880910873413086,0.3771861791610718,0.19172121584415436,-0.4927586019039154,0.964889407157898,0.8766737580299377,0.47236141562461853,-0.8268199563026428,0.9342666864395142,-0.3427177965641022,-0.315236896276474,-0.10508891195058823,0.19738882780075073,-0.264962762594223,1.0171420574188232,0.3105548918247223,-0.8996294140815735,-0.5804229378700256,0.8770390748977661,-0.9233735203742981,0.19277262687683105,0.3382498025894165,0.14413705468177795,-0.14274340867996216,0.2983006238937378,-0.8818739652633667,-0.20955350995063782,1.0050907135009766,0.7697652578353882,-1.1689221858978271,1.0485550165176392,-0.30621805787086487,-0.4156595468521118,-0.1267639696598053,0.3067661225795746,-0.32105472683906555,1.0698444843292236,0.38499513268470764,-0.7409143447875977,-0.4358721673488617,0.7915852069854736,-0.898095428943634,0.035796429961919785,0.26371851563453674,-0.07359816133975983,-0.04331008717417717,0.23740771412849426,-0.7569728493690491,-0.21128298342227936,0.36610856652259827,0.5345906019210815,-0.2613498866558075,0.3704588711261749,-0.6547664403915405,-0.9232740998268127,-0.5870406627655029,0.7512885928153992,-1.0157089233398438,0.3619321882724762,0.3510686159133911,0.5189381837844849,0.6518985033035278,-0.2989153563976288,0.3889067471027374,-0.7194539904594421,-0.8558662533760071,-0.8305408954620361,0.8958267569541931,-0.8384842276573181,0.6939075589179993,0.8278516530990601,0.90053391456604,0.552234411239624,-0.9447882175445557,0.9568337798118591,-0.22307702898979187,-0.3498702943325043,-0.15796378254890442,0.31070297956466675,-0.25672098994255066,0.9183140993118286,0.2607499957084656,-0.3733324110507965,-0.8268433213233948,0.3797454833984375,-0.479214608669281,0.9601325988769531,1.0633187294006348,0.8513121604919434,-1.1045218706130981,0.9262120127677917,-0.8077094554901123,-1.121662974357605,-0.7833406329154968,-0.6895232200622559,0.8868294954299927,-0.8700217008590698,0.1856505423784256,0.35515856742858887,0.21802188456058502,-0.24109986424446106,0.5361905694007874,-0.8737376928329468,-0.2436095029115677]},"cellActivationHidden":{"rows":20,"columns":20,"weights":[-0.21912233531475067,-0.5958573222160339,0.42663535475730896,-0.504573404788971,-0.26674461364746094,1.0889077186584473,0.4293006658554077,-0.04059818759560585,1.2616783380508423,0.6853083968162537,0.9258079528808594,0.7937766313552856,0.0019511495484039187,0.30718791484832764,-0.11661157757043839,0.9697468280792236,0.6160442233085632,0.3341445028781891,-0.5093008875846863,0.010528619401156902,0.5276709794998169,-0.3074408173561096,-0.5062187910079956,0.02161424607038498,-0.5849632024765015,0.0338238850235939,-0.3908481299877167,-0.6616519093513489,0.08764615654945374,0.46594732999801636,1.4667127132415771,-0.16308774054050446,-0.41505253314971924,0.7758755087852478,-0.48299482464790344,0.17782549560070038,0.5616130828857422,0.677824079990387,-0.6400524973869324,-0.6019167900085449,0.4125990569591522,-0.44986358284950256,-0.5496215224266052,-0.12857621908187866,-0.42452237010002136,0.117305226624012,0.5687086582183838,-0.4315001666545868,0.3323301374912262,-0.017847679555416107,0.8387393355369568,0.24836860597133636,-0.3881976306438446,0.37357208132743835,-0.18242312967777252,0.11971365660429001,0.19663728773593903,0.34763556718826294,-0.2496587634086609,-0.26338139176368713,0.030320102348923683,-0.3691648840904236,0.1322750449180603,0.3777777850627899,-0.33133062720298767,-0.3737833797931671,-0.10144492238759995,-0.27650538086891174,0.17073118686676025,-0.2776453495025635,0.08295334875583649,-0.7871658205986023,-0.22323361039161682,-0.378174751996994,-0.035890836268663406,-0.3416372537612915,-0.44450482726097107,-0.3450498878955841,0.37891045212745667,-0.15311379730701447,0.016155708581209183,0.48978856205940247,-0.39325079321861267,0.43752893805503845,0.29396191239356995,-0.9443498849868774,-0.3968770503997803,0.28645840287208557,-0.8990227580070496,-0.48230260610580444,-1.082369089126587,-0.5274387001991272,0.24955421686172485,-0.24961555004119873,0.14532142877578735,-0.7292145490646362,-0.4535367786884308,-0.3586304485797882,0.29026365280151367,0.1712537556886673,0.17852191627025604,-0.15530343353748322,0.40763941407203674,-0.6124539971351624,-0.7292932868003845,1.4134485721588135,0.07001545280218124,-0.10759453475475311,1.2024155855178833,0.5071637630462646,0.7432869672775269,0.5533185601234436,-0.05234736204147339,0.3905563950538635,-0.07092496007680893,1.3103069067001343,0.6768506765365601,0.34216243028640747,-0.6440410017967224,-0.23220327496528625,-1.0012985467910767,0.7707889676094055,0.6065927743911743,0.35866060853004456,0.6006008386611938,-0.3474089503288269,-0.8874313235282898,0.38847899436950684,-0.18524760007858276,-0.28880858421325684,0.12471098452806473,-0.44234368205070496,0.32530152797698975,-0.5100458264350891,0.8618320822715759,-0.4457245171070099,-0.35273659229278564,-0.4878133535385132,0.3570874035358429,0.2541329264640808,0.41484665870666504,-0.05133529007434845,-0.6010724902153015,0.05540798231959343,-0.6615440845489502,0.12131448835134506,-0.26276010274887085,0.0030993002001196146,0.08018267154693604,-0.15336117148399353,0.47510436177253723,-0.258105993270874,0.0572679378092289,0.07216162979602814,-0.32528847455978394,0.2866111993789673,-0.043129000812768936,0.12767978012561798,0.03862611576914787,-0.0707511454820633,-0.5059590339660645,-1.0200347900390625,0.36231473088264465,-0.10599436610937119,0.4223393499851227,0.6056548357009888,0.32175764441490173,-0.21551112830638885,0.2832668125629425,0.4644095301628113,-0.9332764148712158,0.990037202835083,0.06813385337591171,0.23523454368114471,0.4835839569568634,1.421747088432312,0.32166197896003723,0.41539430618286133,-0.455639123916626,0.17730513215065002,-0.402920663356781,0.282673716545105,-0.0653301402926445,-0.39327681064605713,0.3316807448863983,0.335894376039505,0.1918003261089325,0.10393121093511581,-0.2917843461036682,0.21006830036640167,-0.015947086736559868,0.6044031381607056,0.11767295002937317,0.10531450808048248,0.12784206867218018,0.08405015617609024,0.35543596744537354,0.06662224233150482,-0.28106003999710083,0.059363193809986115,-0.18113210797309875,-0.6280686259269714,-0.13222451508045197,0.18779486417770386,-0.38441669940948486,0.7188941836357117,0.6316505670547485,-0.05694890022277832,0.7254883646965027,-0.2956962585449219,-0.06532272696495056,0.40458932518959045,-0.17484228312969208,-0.06488215178251266,0.15491554141044617,0.1896040439605713,-0.16580861806869507,-0.0014410531148314476,0.26586881279945374,0.09297195822000504,-0.4699417054653168,0.8456146121025085,0.41296151280403137,0.5096825361251831,0.5879000425338745,-0.22447152435779572,-0.7797797322273254,0.46626603603363037,-0.028558364138007164,-0.21301056444644928,-1.512313961982727,-0.5138330459594727,0.292042076587677,-0.465680330991745,0.5870480537414551,-0.2955983281135559,-0.30918195843696594,-0.39525076746940613,0.3890485465526581,0.5040621161460876,0.5028409957885742,-0.1161096841096878,-0.6256847977638245,0.06862466037273407,-0.6337445974349976,0.1518956571817398,-0.33702823519706726,-0.08964404463768005,0.22969882190227509,0.05399675667285919,0.5947220921516418,-0.18669241666793823,-0.04460231214761734,0.19902727007865906,-0.3083994388580322,0.21725408732891083,-0.0273502878844738,0.038151439279317856,-0.04259118065237999,-0.09655848890542984,-0.3391057252883911,-0.08737847954034805,0.6388437747955322,0.06490406394004822,0.6154155135154724,-0.18899565935134888,-0.0012477919226512313,-0.05769796669483185,-0.15398620069026947,0.3526221513748169,-0.21916139125823975,0.21881210803985596,-0.11230591684579849,0.05653161182999611,0.08325818926095963,-0.2616877853870392,0.192917600274086,0.06598150730133057,0.02486320026218891,-0.040132757276296616,0.538782000541687,0.20535646378993988,-0.6243635416030884,0.23259501159191132,-0.5537851452827454,-0.15323099493980408,-0.6060327291488647,-0.08244935423135757,0.2949356436729431,-0.5442904233932495,0.7322591543197632,-0.7264731526374817,-0.09764223545789719,-0.30144980549812317,0.12847286462783813,-0.12554755806922913,-0.3408488631248474,-0.2823233902454376,0.368867963552475,-0.16050320863723755,0.01805768348276615,-0.19562563300132751,-0.19222263991832733,-0.6110517978668213,0.13416282832622528,0.37288588285446167,-0.003885307814925909,-0.19050586223602295,-0.03326711803674698,0.5111671090126038,-0.0008839995716698468,0.4749249815940857,-0.13001835346221924,0.3963853716850281,-0.053410205990076065,0.29408857226371765,0.48357412219047546,0.34321287274360657,-0.5265077948570251,-0.21054181456565857,-0.09357976168394089,0.2883124351501465,0.03210631012916565,-0.4820440411567688,0.15203294157981873,0.4534626305103302,0.04713563621044159,0.09160445630550385,-0.3748467266559601,0.42774057388305664,0.10683043301105499,0.5307972431182861,0.11466316878795624,0.28688982129096985,-0.05260223522782326,0.13317228853702545,0.6670411229133606,0.05208245664834976,-0.5324734449386597,0.37796568870544434,-0.46249139308929443,0.2883985638618469,0.6286320686340332,0.008356720209121704,0.6717605590820312,0.057184427976608276,0.0739588588476181,0.14988769590854645,-0.10276216268539429,0.1496463567018509,-0.30762436985969543,-0.004098556935787201,0.03354835510253906,-0.04998686909675598,0.059864211827516556,-0.15327994525432587,0.034420594573020935,-0.0772591158747673,0.02473641186952591,0.2143917828798294,0.1760305017232895,-0.27608442306518555,-0.027359675616025925,0.5554301738739014,0.04455462843179703,-0.45153266191482544,0.2509773075580597,-0.02001332864165306,0.1682935208082199,-0.5337135791778564,-0.12642185389995575,-0.14867644011974335,0.07461071014404297,-0.13271385431289673,0.034161221235990524,-0.1751442849636078,-0.6126235723495483,0.012254394590854645,0.48438069224357605,-0.07663401961326599,0.3219030499458313,-0.06286883354187012,-0.39104539155960083,0.14835777878761292,-0.6373499631881714,-0.19459520280361176,-0.251801460981369,-0.019098104909062386,0.13873589038848877,-0.12708060443401337,0.6579108834266663,-0.20341256260871887,0.07465370744466782,0.13126231729984283,-0.5500326156616211,0.36218100786209106,-0.0946827158331871,0.0959838256239891,-0.018923567607998848,-0.19549277424812317]},"cellActivationBias":{"rows":20,"columns":1,"weights":[-0.1683560311794281,-0.31760016083717346,-0.5493990182876587,0.1696338951587677,0.33820289373397827,-0.251459002494812,0.40608450770378113,-0.20189723372459412,0.07170714437961578,-0.06491930782794952,-1.0869476795196533,0.3545045852661133,-0.28413787484169006,0.19657862186431885,-0.29144009947776794,-0.11985471844673157,-0.0839933454990387,0.20806345343589783,0.13880740106105804,-0.19392122328281403]}},{"inputMatrix":{"rows":20,"columns":20,"weights":[0.04848369210958481,0.7971763610839844,0.11643213033676147,1.0620559453964233,-0.31589171290397644,-0.11266444623470306,-0.32091790437698364,0.9023672938346863,0.40833422541618347,-0.7485252022743225,-0.004128295928239822,-0.5796854496002197,0.807490348815918,-0.8435946702957153,-0.3704424500465393,0.6002340316772461,-0.8463969230651855,-0.9051090478897095,1.0151532888412476,0.976970374584198,0.3491147458553314,2.2807230949401855,-0.977685809135437,-0.0794321745634079,1.345811128616333,0.43373915553092957,-1.568719744682312,0.49243754148483276,1.33854341506958,0.7730484008789062,-0.6580023169517517,0.20395134389400482,0.7558056712150574,0.6726704239845276,-0.16557516157627106,2.943089008331299,0.6045250296592712,0.048025522381067276,-0.539646327495575,0.7654600739479065,0.18303129076957703,0.832811176776886,-0.3645283281803131,0.6413207054138184,0.12252350151538849,1.7591438293457031,-0.6024500727653503,0.8952086567878723,-0.745668888092041,-0.8618590235710144,-1.6526951789855957,-0.5519530773162842,0.881639838218689,-0.8818278312683105,-0.07831759750843048,1.3982223272323608,-0.9829107522964478,-0.9236687421798706,1.1196006536483765,0.9444692134857178,2.209552526473999,1.6414821147918701,-2.1718642711639404,0.3499915301799774,0.7694518566131592,1.7605433464050293,-1.5964332818984985,1.296627402305603,1.2118173837661743,-0.49668294191360474,-3.3494350910186768,2.7922117710113525,1.4232367277145386,-0.18889166414737701,-0.15461307764053345,0.2062191516160965,-0.30427855253219604,-0.4621635675430298,0.4363192617893219,1.550580620765686,-0.021072179079055786,0.779181182384491,-0.27385422587394714,0.7348578572273254,0.27346211671829224,1.1993505954742432,-0.44839993119239807,0.9213147163391113,-0.7268727421760559,-0.9145871996879578,-1.7235631942749023,-0.4268529713153839,0.7534682750701904,-0.6703975200653076,-0.10299443453550339,1.2044376134872437,-1.0274420976638794,-0.7755059599876404,1.1758252382278442,1.0419540405273438,-1.5898672342300415,-0.8831365704536438,0.05045687034726143,0.3806609511375427,1.7216455936431885,-2.227245330810547,0.8180596232414246,-1.2118797302246094,-0.8019648194313049,0.1567028909921646,-0.5473852753639221,0.16822704672813416,-1.0492925643920898,0.6718835234642029,-1.1682140827178955,-0.6523351073265076,0.5087456703186035,0.7615561485290527,-0.5836745500564575,-1.3295530080795288,-1.2473225593566895,1.6421570777893066,-0.11291582882404327,0.8752597570419312,1.0713746547698975,-0.9647788405418396,-1.9203201532363892,0.607366144657135,-0.20631714165210724,-1.0965396165847778,-4.620406627655029,-0.7672141194343567,0.8488984704017639,-0.9115420579910278,0.40780913829803467,1.1422886848449707,-0.9603484272956848,-0.777584433555603,0.9723667502403259,0.6600558757781982,0.14082498848438263,0.7173038721084595,-0.0034273527562618256,0.9277635812759399,-0.5014985203742981,-0.3736684322357178,-0.18440592288970947,0.5565035939216614,0.360741525888443,-0.6945444345474243,0.17706191539764404,-0.9397075772285461,0.4868081212043762,-1.1235780715942383,-0.19876964390277863,-0.04771698638796806,-0.9989827871322632,-1.0832918882369995,0.9399129152297974,0.6960854530334473,0.2648327648639679,0.6477275490760803,0.07753501832485199,0.6786943674087524,-0.4712461829185486,0.07465414702892303,-0.16811634600162506,0.6001679301261902,0.27340462803840637,-0.5869072675704956,-0.11018630862236023,-1.0695854425430298,0.544120192527771,-1.2127145528793335,-0.26038506627082825,0.6558824777603149,-0.77570641040802,-1.1582520008087158,0.9578014612197876,0.5353295803070068,2.1233983039855957,0.6022893190383911,-0.11818373203277588,-0.0433630645275116,-0.641311764717102,-0.8844262957572937,1.099305272102356,-0.35865864157676697,2.1492226123809814,-0.327070415019989,-0.024870624765753746,1.490572214126587,-0.5718520879745483,-0.3908733129501343,-0.7249166965484619,-3.5783705711364746,-0.4164675772190094,-0.39464271068573,0.48038995265960693,-0.3670409023761749,0.21955615282058716,0.6276692152023315,-0.04076225683093071,0.9573259949684143,-0.482697993516922,-0.5348729491233826,-0.27355271577835083,0.5793792605400085,0.3880804777145386,-0.6299654841423035,0.12475624680519104,-0.9152010083198547,0.5421208739280701,-1.1129567623138428,-0.13524723052978516,-0.2955052852630615,-0.93668532371521,-1.1948208808898926,0.8966641426086426,0.6983511447906494,-0.3334611654281616,0.780005693435669,-0.21177169680595398,0.46941134333610535,0.53119957447052,-0.4397621750831604,-0.42919981479644775,0.7366272211074829,-0.4276476800441742,-0.3608807325363159,-1.8949167728424072,-0.5460137724876404,0.8204976320266724,-0.5411388278007507,-0.22089192271232605,0.6124326586723328,-0.5836924910545349,-0.5994365811347961,0.5364437103271484,0.8373935222625732,-3.0434179306030273,-2.4260401725769043,-0.6317788362503052,-0.07685904204845428,0.7963082194328308,1.1549686193466187,1.4273990392684937,0.5362554788589478,-1.9771517515182495,0.637266218662262,-2.273233413696289,2.5191025733947754,1.0837721824645996,0.4274612069129944,-1.1045286655426025,3.31203556060791,0.7581514716148376,-0.11004406958818436,-0.2765786051750183,0.7755683660507202,-0.1601363569498062,0.8291957974433899,0.29667437076568604,-0.03260054439306259,-0.4850320816040039,1.8224165439605713,-0.299591988325119,0.7984147667884827,0.23835578560829163,-0.51314777135849,-0.903258204460144,-1.2155508995056152,0.709794282913208,-1.4962646961212158,-0.0006797440582886338,2.310258150100708,-0.9141301512718201,-1.450291633605957,1.1813340187072754,0.6687633991241455,-0.5133994817733765,0.25756391882896423,-0.3514763116836548,-0.9995473027229309,1.0601493120193481,0.5550215244293213,-0.11081106215715408,-0.37205806374549866,0.22149187326431274,0.8543481230735779,-1.5342767238616943,0.17031735181808472,-0.3341591954231262,0.593298614025116,-1.0131521224975586,0.7708507180213928,1.179201602935791,0.5968787670135498,-0.581921398639679,0.019841061905026436,0.0013109721476212144,1.0634982585906982,0.270190954208374,0.48364996910095215,-0.20577150583267212,0.44597500562667847,-0.5056907534599304,0.9490056037902832,-0.006717502139508724,-0.5343791842460632,-1.0426349639892578,-0.702419638633728,0.8537178039550781,-0.8136112093925476,-0.2612484097480774,1.3159111738204956,-0.737136721611023,-0.852352499961853,0.8021424412727356,0.9966074228286743,1.055208444595337,0.003235860960558057,0.3993763029575348,-0.9130369424819946,-1.288018822669983,3.4538285732269287,-0.8788458704948425,0.9283349514007568,-2.1910300254821777,0.46284735202789307,-0.11534453928470612,-3.620073080062866,0.7847976088523865,-1.2084107398986816,0.4794956147670746,2.472571611404419,0.040577616542577744,-1.3172708749771118,0.01956186257302761,0.6743701100349426,0.5064336657524109,4.152376651763916,-0.4395647943019867,-1.773080825805664,0.435114324092865,1.5700771808624268,-2.607726573944092,0.5616966485977173,-0.20507213473320007,0.44756993651390076,-2.4510104656219482,-2.010176181793213,-0.11163732409477234,-0.4648802876472473,-0.39884138107299805,1.303518295288086,0.4687875509262085,-0.35150963068008423,-0.26851126551628113,0.5086523294448853,-1.508975625038147,1.1313318014144897,-0.2553325891494751,0.35377147793769836,1.4493297338485718,-1.6860281229019165,-0.488937646150589,1.2304933071136475,-0.8708475232124329,-0.9233246445655823,-2.5092079639434814,-1.2086162567138672,1.0868122577667236,-1.5254050493240356,0.7328910231590271,0.5458251237869263,-1.129254937171936,-1.5913422107696533,1.2193454504013062,1.2809408903121948,-0.09832411259412766,0.622362494468689,-0.16389523446559906,0.7085801362991333,0.09685510396957397,-0.27431467175483704,-0.5156999230384827,0.7166620492935181,-0.21321538090705872,-0.6688443422317505,-1.639333963394165,-0.4671922028064728,0.695732057094574,-0.6038131713867188,-0.1703370362520218,0.42723894119262695,-0.6534941792488098,-0.6217376589775085,0.7334081530570984,0.7502546906471252]},"inputHidden":{"rows":20,"columns":20,"weights":[-0.3024417459964752,-0.6299143433570862,0.2526646554470062,0.26132798194885254,-0.21004697680473328,-0.3193708658218384,-0.24171628057956696,0.24720045924186707,-0.2787121832370758,-0.09967969357967377,-0.2935991585254669,0.15548036992549896,-0.7457165718078613,0.33155983686447144,-0.5164875984191895,0.218581885099411,-0.5291343331336975,0.23195576667785645,0.35894569754600525,-0.20159631967544556,1.0931278467178345,0.798668384552002,-0.13792964816093445,0.39486393332481384,0.2106199860572815,0.32020241022109985,0.31036055088043213,-1.0681043863296509,0.7899520993232727,4.6680402755737305,1.1230238676071167,-0.3452407717704773,2.697352647781372,-0.16648560762405396,1.3515838384628296,-0.6009324789047241,0.0530494786798954,0.723125696182251,0.053937312215566635,0.28878054022789,0.3450171947479248,-0.37285226583480835,-0.0989217534661293,0.9828562140464783,0.17819850146770477,-0.55768883228302,0.29201844334602356,-0.35293373465538025,0.38993045687675476,-0.05655985698103905,0.3004890978336334,-0.16576360166072845,-0.647048830986023,-0.4671482741832733,-0.5052730441093445,-0.13042990863323212,0.7740776538848877,0.09752810001373291,-0.33238306641578674,0.19540570676326752,1.448978304862976,-1.1129581928253174,0.4216102957725525,1.4337108135223389,-0.3454430103302002,-0.004393812734633684,-0.6631160378456116,-1.408426284790039,1.5966683626174927,-0.8198866844177246,1.3736501932144165,0.34531426429748535,0.9976812601089478,-1.038484811782837,2.222799777984619,-0.6596758961677551,-3.594316244125366,2.496600866317749,1.1958287954330444,-0.5659306049346924,0.25698739290237427,-0.4539742171764374,0.015625376254320145,0.8939328789710999,0.004423806443810463,-0.5100650787353516,0.07220342755317688,-0.30428558588027954,0.403390496969223,0.07996436953544617,0.351156622171402,-0.018948368728160858,-0.6310655474662781,-0.4420608580112457,-0.5760071873664856,-0.19627578556537628,0.7061028480529785,0.18737629055976868,-0.13383318483829498,0.10421465337276459,-0.6392748355865479,0.3276174068450928,0.06596824526786804,-0.7424594759941101,-0.03923535346984863,-2.054720163345337,0.26172855496406555,0.8107364773750305,-1.0941311120986938,-0.5639903545379639,-0.7494426369667053,-0.6076462864875793,-0.1134791374206543,1.8815677165985107,0.44110921025276184,-0.48213842511177063,-1.7362982034683228,2.110201597213745,-0.20223619043827057,0.604375958442688,0.21320152282714844,0.4080263078212738,-0.6856352090835571,0.5371605157852173,0.4939213991165161,-1.148173451423645,0.868109405040741,-0.17164984345436096,0.23202650249004364,0.9849876165390015,0.11729661375284195,-0.4822477400302887,-1.0044094324111938,-0.5143256783485413,-0.9719571471214294,-0.4012450873851776,0.05604753643274307,0.1372121423482895,-1.1540098190307617,0.5260538458824158,-0.2820618152618408,-0.7012072205543518,0.2990146577358246,0.16441716253757477,-0.235519140958786,-0.34352636337280273,-0.2101731151342392,0.3621329665184021,-0.2895740866661072,-0.059481605887413025,-0.37595564126968384,0.2075769305229187,-1.0561641454696655,0.3675132989883423,-0.5868330001831055,0.30881983041763306,-0.2756994664669037,0.2459259033203125,0.21465425193309784,-0.2165272980928421,-0.33675697445869446,-0.732629656791687,0.2043830305337906,0.2034343183040619,-0.2091517597436905,-0.19640009105205536,-0.3233845829963684,0.3364920914173126,-0.2463899403810501,-0.14456883072853088,-0.3592850863933563,0.2619991898536682,-1.007575511932373,0.21681557595729828,-0.5051504373550415,0.17712156474590302,-0.4498661458492279,0.25077205896377563,0.2878745496273041,-0.23241382837295532,-0.35429325699806213,-0.3144836723804474,0.35003092885017395,2.954535722732544,-0.34150806069374084,-1.5010759830474854,-0.39949020743370056,0.49705061316490173,-0.34481099247932434,-3.7420740127563477,-0.4541642367839813,0.30924105644226074,-1.9393081665039062,0.3551044464111328,-0.4797421395778656,0.45479944348335266,-0.8354800939559937,2.0466296672821045,0.3274703323841095,-0.2931051254272461,-0.36152711510658264,-0.5891971588134766,0.20695717632770538,0.07728347927331924,-0.20757313072681427,-0.4473592936992645,-0.2213182896375656,0.3106127977371216,-0.33861953020095825,-0.23480987548828125,-0.36056411266326904,0.223642960190773,-1.0499390363693237,0.26182374358177185,-0.5433676838874817,0.3641439378261566,-0.3081229627132416,0.2500550448894501,0.2834959328174591,-0.26169201731681824,0.1542806327342987,-0.24076014757156372,-0.33755940198898315,0.4297570586204529,0.3139714300632477,-0.35959213972091675,0.4871145784854889,-0.24821433424949646,0.14365771412849426,-0.04202914983034134,0.16916796565055847,-0.3255437910556793,-0.4727710485458374,-0.08580490946769714,-0.2607267200946808,-0.07034005969762802,0.23725953698158264,-0.06542123854160309,-0.3846084177494049,0.3996760845184326,0.8056557178497314,1.5315912961959839,-0.4491960108280182,-3.939946174621582,0.5708134770393372,0.5547423958778381,1.088021159172058,-0.7170510292053223,0.6976379752159119,2.3240039348602295,0.8010162711143494,-0.5881895422935486,0.2145996391773224,-0.6421775817871094,2.531851053237915,-0.7072855830192566,1.929291844367981,-1.5387321710586548,-0.20903488993644714,0.5336211323738098,-0.2863895297050476,-0.8320542573928833,0.35712918639183044,0.8096725344657898,-0.4058569669723511,-0.2728477120399475,-0.2872138023376465,0.40439701080322266,-0.42142394185066223,-0.04943106323480606,-0.3204970061779022,0.2775353193283081,-1.2938846349716187,0.12264533340930939,-0.7231165170669556,0.3462085723876953,-0.2982043921947479,0.16520778834819794,0.13652434945106506,-0.2136184126138687,0.8039054274559021,0.6276405453681946,-0.6454331278800964,-0.8700879216194153,0.8035776615142822,0.7267234921455383,0.4299728572368622,-0.7499997615814209,0.5676140785217285,0.29282838106155396,0.8483868837356567,-0.8421511054039001,0.7637080550193787,-0.45482397079467773,0.22422939538955688,-0.8282386064529419,-1.4220402240753174,1.9326530694961548,-0.11986419558525085,0.6243342757225037,-0.206316739320755,-0.5001693367958069,0.2758861780166626,0.8091309070587158,-0.27391889691352844,-0.24686792492866516,-0.14835353195667267,0.32575860619544983,-0.31191039085388184,-0.06309021264314651,-0.3263357877731323,0.1133926510810852,-0.7748775482177734,0.23320762813091278,-0.5661320686340332,0.3058452904224396,-0.2837618589401245,0.5248405337333679,0.29269787669181824,-0.07058621197938919,-0.7705594897270203,-0.966701328754425,0.01151094026863575,-0.5855059027671814,-0.15152603387832642,-0.15122142434120178,0.24346499145030975,0.9000139832496643,-0.889018177986145,-2.6028332710266113,-0.8380764126777649,0.4448873996734619,-1.483952283859253,0.6845031380653381,-1.0770056247711182,1.0857365131378174,1.3198238611221313,-1.785104513168335,-0.31323540210723877,-0.5646030306816101,0.23899048566818237,0.34548288583755493,-0.6794818639755249,0.9496533274650574,0.6608253121376038,0.028943683952093124,0.1298573911190033,-0.16771407425403595,0.14379051327705383,-1.9221855401992798,0.1959749311208725,-0.5409169793128967,-1.6570264101028442,-0.38560470938682556,-3.068460702896118,-0.18145321309566498,-0.972893476486206,-1.3661353588104248,-0.01967151090502739,0.6239355802536011,0.3050248920917511,-0.22316588461399078,-0.11764349788427353,0.9573939442634583,0.04064371809363365,-0.5382309556007385,-0.07347211241722107,-0.16076187789440155,0.19220857322216034,0.18752175569534302,0.2853923738002777,-0.39665088057518005,-0.7371508479118347,-0.5177308917045593,-0.7375511527061462,-0.7026316523551941,1.0169504880905151,0.5904255509376526,-0.23828159272670746,0.5970810055732727,0.07714082300662994,-0.37332502007484436,-0.2373712807893753,0.5129765272140503,0.1656332015991211,-0.3078053295612335,0.27618518471717834,-0.19211401045322418,0.18505637347698212,0.09648605436086655,0.16089440882205963,-0.28598856925964355,-0.5294862985610962,-0.10995660722255707,-0.47153812646865845,-0.1358630657196045,0.21883732080459595,0.14209939539432526,-0.25207892060279846,0.3033256530761719]},"inputBias":{"rows":20,"columns":1,"weights":[-0.3145836591720581,-0.7513389587402344,0.6064201593399048,1.061039686203003,0.4876243770122528,-0.39183366298675537,1.9182194471359253,-0.4205974042415619,-0.4325542449951172,-1.1224836111068726,-0.42013877630233765,-0.04946953430771828,0.7622475028038025,0.32983386516571045,1.2998740673065186,0.025431126356124878,1.29392409324646,1.3657689094543457,3.5125930309295654,0.0071152509190142155]},"forgetMatrix":{"rows":20,"columns":20,"weights":[0.2077452391386032,0.32390567660331726,0.081992506980896,0.2921777069568634,-0.4416300654411316,0.21348583698272705,0.024891339242458344,0.19213059544563293,0.5995442867279053,-0.23572003841400146,0.9429892897605896,-0.4954163134098053,0.212715283036232,-0.4591406285762787,-0.03297305107116699,0.7181192636489868,-0.4285198748111725,-0.5024058222770691,0.5968704223632812,0.23182573914527893,3.583207845687866,2.373602867126465,-0.10405478626489639,0.541281521320343,-0.2916533350944519,2.38712215423584,-1.6195658445358276,0.6002321243286133,3.1566829681396484,-0.4757765531539917,0.5611113905906677,-2.311353921890259,0.42280125617980957,0.7440555095672607,-0.44178444147109985,5.128121376037598,0.06449557095766068,-0.6352941989898682,-0.012749708257615566,0.5083542466163635,0.6479932069778442,0.23012952506542206,-0.7600903511047363,1.016144871711731,0.5666725039482117,-0.4948786199092865,-0.11840826272964478,0.28951844573020935,-1.0157344341278076,-0.8929315209388733,-0.6988178491592407,-0.5798378586769104,0.2360636293888092,-0.48984086513519287,0.20413009822368622,-1.020667552947998,-0.9824257493019104,-0.5003030300140381,1.063655972480774,0.3271467685699463,3.0965938568115234,-0.23005311191082,0.2953556180000305,1.1899209022521973,0.2579847276210785,0.4587130546569824,-0.8652560114860535,0.9733889102935791,-0.5722601413726807,-0.11771838366985321,-1.9525060653686523,1.588339924812317,2.565469264984131,0.19144459068775177,0.2522963285446167,0.8751696348190308,-0.021861407905817032,0.120387502014637,0.3434922397136688,2.1324799060821533,0.637639582157135,0.16773547232151031,-0.8744555711746216,1.0609678030014038,0.6158393025398254,-0.5028581619262695,-0.04826898127794266,0.3200111985206604,-0.9620844721794128,-0.9508997201919556,-0.7852228283882141,-0.49167153239250183,0.282602995634079,-0.46433496475219727,0.15564075112342834,-1.0637030601501465,-1.0092271566390991,-0.4479711949825287,1.0329195261001587,0.24066069722175598,2.6438839435577393,-0.7170573472976685,0.4710448980331421,-0.19725893437862396,1.5164927244186401,0.20370066165924072,-0.8986166715621948,0.44120103120803833,-3.2827484607696533,0.10404756665229797,-0.34789803624153137,-1.5136022567749023,1.4512909650802612,0.25270456075668335,-0.2591738700866699,1.210623025894165,0.13326869904994965,-0.0836482122540474,-0.3443605899810791,0.4327300786972046,0.9630717635154724,0.9445059299468994,-1.0417149066925049,0.7935094237327576,0.47265613079071045,-0.4403197765350342,-0.8673350811004639,-0.14475180208683014,-0.7455675005912781,-0.8861284255981445,-0.8872862458229065,-0.4344407916069031,-0.12423645704984665,-0.18218141794204712,0.004877992440015078,-1.4063259363174438,-0.7814086079597473,0.03437083214521408,0.861322820186615,-0.25476428866386414,0.18499401211738586,0.31821298599243164,-0.008930482901632786,0.2982843816280365,-0.4913041293621063,0.2867073714733124,0.050548210740089417,0.23357902467250824,0.7287299036979675,-0.2707850933074951,0.8901153802871704,-0.46789056062698364,0.17743399739265442,-0.43856602907180786,-0.14096762239933014,0.7443902492523193,-0.39547619223594666,-0.4045783281326294,0.414236843585968,0.24128760397434235,0.16923470795154572,0.2254868745803833,0.18930116295814514,0.24539752304553986,-0.5408185720443726,0.21520163118839264,0.10024971514940262,0.1214306429028511,0.691016435623169,-0.297404944896698,0.7845949530601501,-0.37762486934661865,0.09785778075456619,-0.37222766876220703,-0.1536521166563034,0.5112172961235046,-0.4419638514518738,-0.3516709804534912,0.5250588655471802,0.28887924551963806,0.1872013360261917,-0.781177818775177,-0.08621816337108612,-0.5717812180519104,0.22516126930713654,0.091117262840271,0.7051384449005127,-1.2471215724945068,0.002700743032619357,0.307052880525589,-0.3309800624847412,0.1526128202676773,-1.2357131242752075,0.646663248538971,-0.2909732758998871,0.36334824562072754,0.6236225366592407,0.5597295761108398,-0.5794628858566284,-1.172634482383728,0.24285832047462463,0.2617773711681366,-0.03473731130361557,0.3078043460845947,-0.4221467673778534,0.24551574885845184,0.08655504882335663,0.17796558141708374,0.849151611328125,-0.36735379695892334,0.8441043496131897,-0.35862022638320923,0.2301592379808426,-0.4664047956466675,-0.2434857189655304,0.7262318134307861,-0.44949576258659363,-0.5003295540809631,0.41308942437171936,0.22523562610149384,0.2972758710384369,0.36186763644218445,-0.6123744249343872,0.7158635258674622,0.1815560907125473,-0.8253782391548157,-0.13610106706619263,0.37045595049858093,-0.8316046595573425,-0.5992945432662964,-0.3598681688308716,-0.47865116596221924,0.286176472902298,-0.5566094517707825,0.10941234976053238,-0.49088242650032043,-0.6959514617919922,-0.5253903865814209,0.8046404719352722,0.35615092515945435,-2.3513810634613037,-0.5635761618614197,-2.0839688777923584,0.4691646099090576,1.1069947481155396,1.9135751724243164,0.918777346611023,0.5625541806221008,-1.4070621728897095,-0.8217384219169617,-0.1960126906633377,-0.04092416912317276,0.3363105356693268,-0.610199511051178,0.5541370511054993,0.750784695148468,-0.7008393406867981,-0.7333391308784485,0.18617786467075348,0.21790339052677155,0.11141987890005112,0.6245721578598022,0.256041556596756,0.468380868434906,-0.6927890181541443,0.11603864282369614,0.1250435709953308,0.1802898496389389,0.8097901940345764,-0.4945266544818878,1.0484236478805542,-0.8389827013015747,0.07960456609725952,-0.8060157895088196,0.19002343714237213,0.24546639621257782,-0.6928080320358276,-0.9008132815361023,0.7590270042419434,0.2528425455093384,3.2346019744873047,2.308152198791504,-0.08337617665529251,0.2455434650182724,1.3712319135665894,-0.4300619065761566,-3.509073495864868,0.25135597586631775,-0.4233492910861969,-0.4792250990867615,-0.9309777021408081,-1.996431589126587,0.33658432960510254,-0.21908952295780182,-0.15861745178699493,-0.4003877341747284,-0.18989147245883942,-0.243484765291214,0.3026067316532135,0.41182059049606323,0.2798771262168884,0.5243507623672485,0.28993940353393555,0.384122371673584,-0.5436300039291382,-0.4843350052833557,0.01064111478626728,0.3056739866733551,0.09447066485881805,-0.41895052790641785,0.5135200619697571,-0.5151853561401367,0.15730205178260803,-0.5303688049316406,0.02423137053847313,0.14244720339775085,-0.5884637832641602,-0.5097145438194275,0.6541820764541626,0.35351091623306274,0.15642555058002472,-0.1841045767068863,0.11765167862176895,0.9631566405296326,-0.6899154782295227,0.1601043939590454,0.22482074797153473,0.7419772744178772,0.21658626198768616,-0.5330694317817688,0.06355453282594681,-0.6351319551467896,0.6992539167404175,-1.359362006187439,0.04436476156115532,0.45894166827201843,-0.7650644779205322,-1.3317381143569946,0.8953253030776978,0.7349939942359924,-1.6856673955917358,3.6793134212493896,-0.796376645565033,0.2153647392988205,1.8150300979614258,-2.6480753421783447,-3.2565207481384277,-0.8265866041183472,-1.357009768486023,-0.6514773368835449,-2.3439602851867676,-2.217849016189575,-1.147559404373169,-0.2947165071964264,0.028439313173294067,-2.5324385166168213,-0.5254387259483337,0.1952570080757141,0.341921329498291,-1.108144760131836,0.6667890548706055,0.3467574715614319,-1.0333949327468872,1.2599629163742065,0.4511567950248718,-0.6328044533729553,-0.11410420387983322,0.3227255940437317,-1.0871073007583618,-1.321461796760559,-0.42205488681793213,-0.6798686385154724,0.22714391350746155,-0.6336399912834167,0.3101238012313843,-1.6602197885513306,-1.2933534383773804,-0.5138376355171204,1.1718051433563232,0.34458237886428833,0.2008650153875351,0.5238286852836609,-0.524985671043396,0.6145804524421692,0.13619159162044525,-1.0023524761199951,-0.2756471633911133,0.405038446187973,-0.787394106388092,-0.49534836411476135,-0.053407907485961914,-0.49999427795410156,0.3815752863883972,-0.4252236485481262,0.14194241166114807,-0.4256727397441864,-0.5823691487312317,-0.5317615270614624,0.7222495675086975,0.2941789925098419]},"forgetHidden":{"rows":20,"columns":20,"weights":[-0.2505868375301361,-0.46661996841430664,0.17247606813907623,0.19734784960746765,-0.1990104764699936,-0.144394189119339,-0.247502401471138,0.2504122853279114,-0.2637232542037964,-0.39707261323928833,-0.3383215367794037,0.17063631117343903,-0.40062299370765686,0.22530578076839447,-0.2859601080417633,0.3017238676548004,-0.31719091534614563,0.18079395592212677,0.23959091305732727,-0.09579958021640778,0.43723583221435547,0.6299740672111511,0.36738210916519165,0.44077789783477783,-0.42683809995651245,0.17002765834331512,-0.3254789113998413,-0.2011689692735672,0.0846368744969368,2.3965511322021484,0.2508702278137207,0.5975221395492554,3.5779082775115967,-0.001628472818993032,1.0399320125579834,0.5145589113235474,0.5857270359992981,2.3555076122283936,0.8418570756912231,-0.6950260400772095,0.17563174664974213,-0.28881070017814636,-0.084111787378788,1.058639645576477,-0.028611883521080017,-0.545062243938446,-0.012006541714072227,-0.16201607882976532,0.07762160152196884,-0.12025335431098938,0.1495947241783142,0.0024872857611626387,-0.8107159733772278,-0.19545875489711761,-0.7295257449150085,-0.07820107042789459,0.12194277346134186,0.14177201688289642,-0.045953236520290375,-0.004718131385743618,-0.34099283814430237,-0.9312326312065125,0.7472620606422424,0.3838128447532654,-0.7207854390144348,0.35913345217704773,-0.6033714413642883,0.4787142872810364,-0.7994303703308105,-0.7735896706581116,-0.3283469080924988,0.8265935778617859,1.162741780281067,0.7995541095733643,2.1130125522613525,0.47488370537757874,-3.8205831050872803,1.4115376472473145,1.995490312576294,-0.9340315461158752,0.05333511903882027,-0.3018666207790375,0.00471548642963171,1.0319740772247314,0.05139368772506714,-0.5845471024513245,0.009481088258326054,-0.08203244209289551,0.10175885260105133,-0.03468333184719086,0.12152945250272751,-0.04330695420503616,-0.6818811893463135,-0.11310097575187683,-0.8075141906738281,0.03800550475716591,0.12419437617063522,0.08927968144416809,-0.08305889368057251,0.07236386835575104,0.18670828640460968,0.6347057223320007,-0.5182024836540222,-1.2793091535568237,0.3995671272277832,-0.48503604531288147,0.3931652307510376,-0.3243883550167084,0.20718635618686676,1.1090013980865479,0.39553892612457275,-0.2409210056066513,-1.3684438467025757,-0.42546236515045166,0.8665786385536194,-0.2569505274295807,1.5860265493392944,-3.9436495304107666,0.21558508276939392,0.30302557349205017,0.2563341557979584,0.1008702889084816,0.051946647465229034,0.9419115781784058,-0.07185190916061401,-1.4002907276153564,-0.29873138666152954,-0.3410636782646179,0.25533390045166016,0.041146427392959595,0.34421998262405396,0.10822342336177826,-1.2333158254623413,-0.3730407953262329,-1.2373476028442383,0.025297552347183228,-0.2049623727798462,0.39171189069747925,0.015575776807963848,-0.1344803422689438,-0.23795802891254425,-0.5131778717041016,0.20429255068302155,0.03614935278892517,-0.2664491832256317,-0.1555459350347519,-0.14417828619480133,0.25311318039894104,-0.32243990898132324,-0.35709771513938904,-0.2872134745121002,0.15912511944770813,-0.3450315296649933,0.23697812855243683,-0.281771183013916,0.2622670531272888,-0.34538644552230835,0.19999249279499054,0.09857437014579773,-0.24465513229370117,-0.3246907889842987,-0.49812954664230347,0.27464956045150757,0.0338556282222271,-0.1393367052078247,-0.13979998230934143,-0.2675307095050812,0.2665867805480957,-0.2559528648853302,-0.40993234515190125,-0.3147910535335541,0.17986077070236206,-0.4232011139392853,0.2904631793498993,-0.26553452014923096,0.23590494692325592,-0.3523874878883362,0.18397113680839539,0.21256472170352936,-0.10222623497247696,-0.27236732840538025,0.006553309969604015,0.28795701265335083,-0.27447792887687683,-0.33592280745506287,-0.20014488697052002,-0.38552623987197876,0.34241679310798645,-0.38918524980545044,-0.24669840931892395,-0.3878178596496582,0.330244779586792,-0.28151407837867737,0.37058210372924805,-0.4525197148323059,0.296430766582489,-0.3492583930492401,0.26190468668937683,0.3366311192512512,-0.382684588432312,-0.3340545892715454,-0.5251440405845642,0.17787612974643707,0.06307046860456467,-0.2380155324935913,-0.11049163341522217,-0.17440511286258698,0.33850884437561035,-0.24279503524303436,-0.3384949564933777,-0.34936872124671936,0.1431090384721756,-0.26103904843330383,0.2170252948999405,-0.31389451026916504,0.21148307621479034,-0.30923473834991455,0.15292637050151825,0.14935149252414703,-0.17457275092601776,0.11344573646783829,-0.5699675679206848,-0.046234820038080215,1.3766530752182007,0.014109589159488678,-0.42805033922195435,0.007791772484779358,-0.11387171596288681,0.09983762353658676,-0.15653815865516663,0.16101416945457458,-0.03163743019104004,-0.6319849491119385,-0.05898873880505562,-0.6811181902885437,-0.021157514303922653,0.06996988505125046,0.2460116297006607,-0.07770811766386032,0.12643662095069885,0.4011346697807312,-1.1071206331253052,-0.6815838813781738,0.1103382557630539,1.2209023237228394,0.7533856630325317,1.2340558767318726,-0.0646810308098793,-0.1745629608631134,-3.1661922931671143,0.0494450218975544,-1.284963607788086,0.18247030675411224,1.8571287393569946,1.8923566341400146,-0.44104135036468506,-4.158346176147461,3.5118770599365234,-0.31925225257873535,1.164212942123413,-0.3697228729724884,-0.5637274980545044,0.2504967153072357,0.4820040166378021,-0.2777845859527588,-0.09703885763883591,-0.2667824625968933,0.25702571868896484,-0.304192453622818,-0.3528888523578644,-0.2954942584037781,0.24797016382217407,-0.7499829530715942,0.21344397962093353,-0.6450138092041016,0.3172866106033325,-0.3269077241420746,0.15638774633407593,0.20678620040416718,-0.1316094696521759,0.011913252994418144,-0.8307945728302002,1.0744752883911133,0.33273112773895264,-0.7898116707801819,0.44069552421569824,-1.1074422597885132,-0.05366474762558937,-0.5553144216537476,1.27691650390625,0.14390254020690918,0.3843105733394623,-0.9457802772521973,1.3277947902679443,-0.27845895290374756,0.44270408153533936,-3.064199447631836,-0.13161629438400269,2.537607431411743,-0.49643611907958984,-0.31472378969192505,-0.6753299832344055,0.2883194088935852,0.9256839156150818,-0.2235693484544754,-0.10572175681591034,-0.24899537861347198,0.4385828971862793,-0.4332963526248932,-0.3384759724140167,-0.33659470081329346,0.16596882045269012,-0.6283082962036133,0.36223942041397095,-0.5478116869926453,0.3330686688423157,-0.3220185339450836,0.3000989258289337,0.1803642362356186,-0.18530309200286865,-0.43616095185279846,-0.6633991599082947,0.38433030247688293,0.28093698620796204,-0.394269198179245,0.658319354057312,-0.3094403147697449,0.4154229760169983,-0.38298293948173523,-0.24392327666282654,-0.4753977954387665,0.3369161784648895,-0.5367084741592407,0.4279840886592865,-0.28760427236557007,0.38388779759407043,-0.3905975818634033,0.29023849964141846,0.27209845185279846,-0.3346337378025055,0.028238540515303612,1.67490816116333,-0.13355973362922668,0.10657402873039246,0.08822955191135406,-1.7513351440429688,0.050753675401210785,0.059358395636081696,-0.05339335650205612,-0.7471842765808105,-0.1036047711968422,-0.16050200164318085,-0.7000809907913208,0.0269002802670002,-2.042656898498535,-0.05170207843184471,-0.3165658712387085,0.20811443030834198,-0.2823439836502075,0.20425909757614136,0.20581302046775818,-0.45020803809165955,0.10517172515392303,0.8929432034492493,-0.08060073107481003,-0.5568855404853821,-0.05641419067978859,-0.2569570541381836,0.2583135664463043,0.1047285795211792,0.2621314525604248,0.1732012927532196,-0.8140462636947632,-0.3517085909843445,-0.8067431449890137,0.05365213006734848,0.21858099102973938,0.217387855052948,-0.02010667882859707,-0.12108790874481201,0.0963527113199234,-0.7231406569480896,-0.03266771510243416,1.4355534315109253,0.13572148978710175,-0.34394001960754395,0.15499308705329895,-0.1988299936056137,0.10883133858442307,-0.0680227056145668,0.05168958753347397,-0.0673653855919838,-0.6428217887878418,-0.08314533531665802,-0.6796999573707581,-0.09414003044366837,0.12583602964878082,0.4482313394546509,-0.030381031334400177,0.2195955365896225]},"forgetBias":{"rows":20,"columns":1,"weights":[0,0,0,0,0,0,0,0,0,0,0,0,0,0,0,0,0,0,0,0]},"outputMatrix":{"rows":20,"columns":20,"weights":[-0.07390686869621277,0.9919599890708923,0.047981683164834976,1.0059033632278442,-0.2727377116680145,-0.07254475355148315,-0.35102397203445435,0.995464026927948,0.39775437116622925,-0.7277899980545044,0.09769902378320694,-0.5682479739189148,0.9300844073295593,-0.8929170370101929,-0.28614240884780884,0.595019519329071,-0.8060225248336792,-0.9466285109519958,0.9429614543914795,1.0690126419067383,0.6864120960235596,-0.2742907404899597,-0.34003016352653503,-1.102539300918579,1.2684283256530762,0.05298496037721634,0.385439395904541,-0.500029981136322,-0.6288743615150452,1.5502070188522339,0.09290359169244766,1.0916001796722412,-0.6343006491661072,2.0994012355804443,-1.2819154262542725,0.16798081994056702,1.3913826942443848,0.961540937423706,-1.9175143241882324,-0.24167479574680328,0.21633458137512207,0.7421764731407166,-0.3444809317588806,0.7006589770317078,0.2630797326564789,1.1855641603469849,-0.41863134503364563,0.9151255488395691,-0.8148789405822754,-0.8913791179656982,-2.4273605346679688,-0.5381471514701843,0.8548604249954224,-0.8478246331214905,-0.17506350576877594,1.3029353618621826,-0.9237454533576965,-0.955172061920166,1.1728482246398926,0.9915505647659302,0.5308421850204468,0.6008471250534058,-0.975531816482544,-0.1352236270904541,1.3826736211776733,0.8122572302818298,-0.5492714047431946,0.16346371173858643,0.8651396632194519,0.37214791774749756,-2.1090636253356934,1.5398716926574707,0.2836706340312958,0.30981940031051636,-0.6762908101081848,1.474786639213562,0.447858065366745,0.23033976554870605,-0.2893277704715729,0.4855421781539917,0.034559473395347595,0.8072027564048767,-0.38062334060668945,0.8213093280792236,0.32895538210868835,0.9228737354278564,-0.3638484477996826,0.8918570876121521,-0.8408242464065552,-0.8653286695480347,-2.3058125972747803,-0.4867423474788666,0.7704312801361084,-0.758631706237793,-0.21907158195972443,1.02113938331604,-1.0060621500015259,-0.7448140382766724,1.1806946992874146,1.0356993675231934,0.7913067936897278,-0.7089537978172302,-0.13109344244003296,-0.9776782989501953,0.9975680112838745,-0.7277565002441406,0.7262470126152039,-1.01985764503479,0.08917520940303802,0.739353597164154,-0.9394082427024841,0.5907488465309143,-0.8427276015281677,0.878208577632904,-1.6938703060150146,0.8771525025367737,1.138293743133545,0.8682785630226135,-1.268019437789917,-1.1194500923156738,-0.8780496120452881,1.4416577816009521,-0.2963477075099945,0.6459797620773315,1.0796984434127808,-1.143591284751892,-1.5950911045074463,0.46207332611083984,-0.47109177708625793,-0.7856205105781555,-3.911428213119507,-0.5670791864395142,0.6183719635009766,-0.6042569875717163,0.21427038311958313,1.0669742822647095,-0.806902289390564,-0.48454955220222473,0.7305062413215637,0.6234703063964844,0.2362343817949295,0.8480417728424072,0.08688534796237946,0.8267695307731628,-0.44510674476623535,-0.4869208037853241,-0.30457866191864014,0.7300682067871094,0.36230480670928955,-0.6664031147956848,0.20387068390846252,-0.8409522771835327,0.6637454032897949,-1.0698158740997314,-0.20242862403392792,0.08934856206178665,-0.8343539834022522,-1.1964200735092163,0.9432851076126099,0.7718960642814636,0.22650469839572906,0.7903067469596863,0.006557186134159565,0.6966244578361511,-0.466592401266098,-0.06920862197875977,-0.24480310082435608,0.7002905011177063,0.4011650085449219,-0.6280338168144226,-0.05274990200996399,-0.9907034039497375,0.6495354175567627,-1.103969693183899,-0.296644389629364,0.7021687030792236,-0.8120110630989075,-1.2069188356399536,0.9989669322967529,0.682059645652771,1.1613152027130127,0.6190087199211121,-0.13539227843284607,-0.3455595076084137,-0.4282154142856598,-0.9364763498306274,0.13428698480129242,-0.6752339601516724,1.3842540979385376,-0.05575251579284668,-0.9432243704795837,0.2812908887863159,-0.7331542372703552,0.07553374022245407,-1.3358802795410156,-2.3014914989471436,0.022472741082310677,0.13107198476791382,0.19128283858299255,-0.7145198583602905,0.2548929750919342,0.8986662030220032,0.0789809599518776,0.9185714721679688,-0.4517057240009308,-0.41667088866233826,-0.3472181558609009,0.5989499688148499,0.35256823897361755,-0.6445120573043823,0.1596289426088333,-0.8754511475563049,0.6549379229545593,-1.116171956062317,-0.17737096548080444,0.038963139057159424,-0.8087866306304932,-1.1475809812545776,0.9279873371124268,0.7736182808876038,-0.3974320590496063,0.7330796122550964,-0.2541578412055969,0.47846129536628723,0.5240141153335571,-0.59618079662323,-0.45654112100601196,0.8279630541801453,-0.4936959147453308,-0.489567369222641,-1.8391532897949219,-0.5466543436050415,0.8876038789749146,-0.7264197468757629,-0.2927737236022949,0.6068981289863586,-0.49440404772758484,-0.7227615714073181,0.6523234248161316,0.8564233779907227,-0.23108339309692383,-1.5257129669189453,-0.4619044363498688,-0.3829146921634674,1.0383961200714111,1.253315806388855,1.0119537115097046,-0.19223575294017792,-1.0285745859146118,0.6560398936271667,-1.6617375612258911,1.306351900100708,0.22125144302845,0.5299823880195618,-0.8861669898033142,2.8044381141662598,0.96144038438797,0.44903093576431274,-0.5916799902915955,-0.06589329242706299,-0.06345362961292267,1.1181737184524536,0.21265694499015808,-0.0018925926415249705,-0.3986579477787018,1.7159901857376099,-0.28107067942619324,0.851184606552124,0.24122972786426544,-0.5757569670677185,-1.2977495193481445,-1.1730481386184692,0.7092490792274475,-1.5800483226776123,0.03341630846261978,2.4715192317962646,-0.9224209189414978,-1.5278269052505493,1.207542896270752,0.8613560795783997,-0.641162633895874,0.23615838587284088,-0.4168034791946411,-0.6607134938240051,1.1409529447555542,0.634688675403595,-0.09115511924028397,-0.5951389074325562,-0.49094337224960327,0.7875624299049377,-1.5009770393371582,0.1837015450000763,-0.5863291025161743,0.7309610843658447,-0.6934443116188049,1.0081946849822998,1.1049489974975586,0.8207981586456299,-0.6331554651260376,-0.1165066510438919,-0.16231654584407806,1.2209088802337646,0.20030437409877777,0.5736116766929626,-0.11926127225160599,0.34073224663734436,-0.42335113883018494,1.0190520286560059,0.04147660732269287,-0.5819796323776245,-1.227794885635376,-0.77804034948349,0.9375230073928833,-0.9766942858695984,-0.2081744521856308,1.172193169593811,-0.8085970878601074,-0.9771178960800171,0.9727835655212402,0.9668259620666504,1.3071266412734985,0.051087964326143265,0.19059863686561584,-1.2023745775222778,-1.196323275566101,2.992469310760498,-0.4620307385921478,0.8055583238601685,-0.8959221839904785,0.36047086119651794,-0.5215446352958679,-2.5620429515838623,0.47049835324287415,-0.9877796769142151,-0.33967214822769165,2.4858665466308594,0.09292258322238922,-1.0835834741592407,0.08300872892141342,0.5731690526008606,0.13934196531772614,3.994422674179077,-0.46966782212257385,-1.6371606588363647,0.6160016655921936,1.0789103507995605,-2.7787578105926514,0.30809012055397034,-0.4400552809238434,0.6501221060752869,-2.5228185653686523,-1.8985278606414795,-0.376108318567276,-0.3184572160243988,-0.9188125729560852,1.192111849784851,0.6204163432121277,-0.21481536328792572,-0.4469492733478546,0.33154356479644775,-1.3132878541946411,1.2357242107391357,-0.3754240870475769,0.5888765454292297,1.5069764852523804,-1.8806384801864624,-0.4055699110031128,1.2474331855773926,-0.8708351254463196,-0.974183976650238,-2.6977791786193848,-1.0331186056137085,0.9612287878990173,-1.4801740646362305,0.4423787295818329,0.541636049747467,-1.0893858671188354,-1.447090744972229,1.2544043064117432,1.3255366086959839,-0.03447462245821953,0.8297142386436462,-0.3302435278892517,0.5997314453125,0.2190411388874054,-0.45376741886138916,-0.5587050318717957,0.761339545249939,-0.4547513425350189,-0.5741353631019592,-1.527960181236267,-0.5720651149749756,0.6876685619354248,-0.637725293636322,-0.12072557210922241,0.3936266601085663,-0.6416975259780884,-0.7309367656707764,0.7495157718658447,0.9234073758125305]},"outputHidden":{"rows":20,"columns":20,"weights":[-0.1595725566148758,-0.44425299763679504,0.0865209549665451,0.1531270295381546,-0.04674915969371796,-0.41051748394966125,-0.14484694600105286,0.14084140956401825,-0.17732183635234833,-0.07954475283622742,-0.1619243621826172,0.038608841598033905,-0.5783954858779907,0.17760315537452698,-0.35793542861938477,0.08455698937177658,-0.20116381347179413,0.15798914432525635,0.1090446338057518,-0.10357557982206345,0.8749154806137085,1.1516278982162476,-0.5010520219802856,-1.2034378051757812,0.6346921324729919,-0.4934021532535553,0.5270032286643982,-0.7534783482551575,0.5302905440330505,0.45319902896881104,0.8973040580749512,-0.6654280424118042,0.4393293261528015,-0.5145388245582581,1.2260758876800537,-0.8398905992507935,-0.28539273142814636,0.26534730195999146,-0.16621680557727814,0.6363237500190735,0.47905513644218445,-0.23564475774765015,-0.27589157223701477,0.8726290464401245,0.15981228649616241,-0.5680574178695679,0.28115710616111755,-0.4406472146511078,0.4282535910606384,0.016507549211382866,0.42297688126564026,-0.16819773614406586,-0.736544132232666,-0.4683871269226074,-0.5145115256309509,-0.19467078149318695,0.44634681940078735,0.00548126082867384,-0.3408050239086151,0.19621054828166962,0.9437168836593628,-0.2948131561279297,-0.5520504117012024,0.6339534521102905,0.6669713854789734,0.9611496329307556,0.32297757267951965,-0.704208493232727,0.5334084630012512,1.2630900144577026,0.8479235172271729,-0.6029567718505859,1.4651246070861816,-0.04535767808556557,1.1765282154083252,-0.6046195030212402,-2.2557880878448486,1.8962528705596924,0.659684419631958,0.5101338624954224,0.33587387204170227,-0.3051947355270386,-0.0744464173913002,0.9507331848144531,0.13750696182250977,-0.5387322306632996,0.25518056750297546,-0.3470783233642578,0.4395470917224884,0.13340963423252106,0.4114479720592499,-0.15654298663139343,-0.7141897082328796,-0.36108362674713135,-0.5797265768051147,-0.27897918224334717,0.47005021572113037,0.05909944325685501,-0.23984181880950928,0.14921249449253082,-0.15610145032405853,0.926639199256897,-0.30955857038497925,-0.7174338102340698,0.2716118097305298,-0.7278094291687012,0.31442517042160034,0.2162981927394867,-0.2357703298330307,-0.49742433428764343,-0.2268480807542801,-0.5810680985450745,-0.05709990859031677,0.5972378253936768,0.706428587436676,-0.3247399926185608,-0.9792817234992981,0.4267393946647644,-0.07129915058612823,0.5667257308959961,0.36152738332748413,0.4567752182483673,-0.3846500813961029,0.5240325927734375,0.5170266032218933,-1.0650782585144043,0.4260485768318176,-0.3619788885116577,0.3067340850830078,0.7199946641921997,0.23475390672683716,-0.3756370544433594,-0.8277239203453064,-0.4827108085155487,-0.8838964700698853,-0.32718247175216675,-0.02647293359041214,0.031586699187755585,-0.770845353603363,0.44284725189208984,-0.1641998589038849,-0.5669183135032654,0.1864667534828186,0.05708136409521103,-0.17647980153560638,-0.44408196210861206,-0.12204080820083618,0.21329990029335022,-0.10830054432153702,-0.17185117304325104,-0.2606975734233856,0.15694616734981537,-0.9441843032836914,0.12724216282367706,-0.49430137872695923,0.20452512800693512,-0.19223642349243164,0.12666034698486328,0.15061123669147491,-0.12015894800424576,-0.1362433135509491,-0.6571265459060669,0.03796118125319481,0.1710895299911499,-0.03298891335725784,-0.2112651914358139,-0.14594441652297974,0.19200271368026733,-0.17216970026493073,-0.16518566012382507,-0.18592724204063416,0.09311092644929886,-0.9796870350837708,0.14138606190681458,-0.46786925196647644,0.16292592883110046,-0.20862866938114166,0.10116737335920334,0.09253574162721634,-0.06776869297027588,-0.3395999073982239,0.4880329370498657,0.2866622805595398,1.4949756860733032,-0.4024326205253601,-2.031048059463501,-0.24728059768676758,0.417609304189682,-0.36304065585136414,-1.989404320716858,-0.4217219948768616,0.360510915517807,-2.6330413818359375,0.39320534467697144,-0.3211122155189514,0.4450795352458954,-0.5859174728393555,0.7720618844032288,0.24351993203163147,-0.2738410532474518,-0.315204918384552,-0.5596100091934204,0.15974314510822296,0.10859661549329758,-0.18805377185344696,-0.4972831904888153,-0.032731443643569946,0.20856869220733643,-0.18390099704265594,-0.17807459831237793,-0.20940835773944855,0.20003223419189453,-1.1138795614242554,0.17478355765342712,-0.5089259743690491,0.18684513866901398,-0.17067740857601166,0.16484560072422028,0.14553514122962952,-0.19311083853244781,0.2899843156337738,-0.30342596769332886,-0.38132819533348083,0.6451491713523865,0.41635334491729736,-0.33515751361846924,0.4882790744304657,-0.28412073850631714,0.3186279237270355,0.0499919094145298,0.2619480490684509,-0.5384981036186218,-0.3588278293609619,-0.2396855503320694,-0.350618451833725,-0.23941491544246674,0.1742766946554184,0.019312076270580292,-0.3892570436000824,0.4838907718658447,0.9424635171890259,0.5822991728782654,-0.5129076838493347,-1.1665018796920776,0.5901432633399963,0.7163688540458679,0.811892569065094,-0.8329015374183655,0.762911319732666,1.300714373588562,0.7496951222419739,-0.7916161417961121,0.7687411904335022,-0.18331502377986908,1.5165796279907227,-0.7084354758262634,